{"learner":{"attributes":{"best_iteration":"999","best_ntree_limit":"1000","scikit_learn":"{\"n_estimators\": 1000, \"objective\": \"reg:squarederror\", \"max_depth\": 6, \"max_leaves\": null, \"max_bin\": null, \"grow_policy\": null, \"learning_rate\": 0.1, \"verbosity\": null, \"booster\": null, \"tree_method\": null, \"gamma\": 0.003, \"min_child_weight\": 1.3, \"max_delta_step\": null, \"subsample\": 1, \"sampling_method\": null, \"colsample_bytree\": 0.4, \"colsample_bylevel\": null, \"colsample_bynode\": null, \"reg_alpha\": null, \"reg_lambda\": null, \"scale_pos_weight\": null, \"base_score\": null, \"missing\": NaN, \"num_parallel_tree\": null, \"random_state\": null, \"n_jobs\": null, \"monotone_constraints\": null, \"interaction_constraints\": null, \"importance_type\": null, \"gpu_id\": null, \"validate_parameters\": null, \"predictor\": null, \"enable_categorical\": false, \"feature_types\": null, \"max_cat_to_onehot\": null, \"max_cat_threshold\": null, \"eval_metric\": null, \"early_stopping_rounds\": null, \"callbacks\": null, \"_estimator_type\": \"regressor\"}"},"feature_names":["Superficie","nearest_banque","nearest_train","nearest_restaurant","nearest_autoRoute","nearest_arretbus","nearest_superMarche","nearest_rocade","nearest_mosquee","nearest_pharmacie","nearest_routeNational","nearest_Ecole","nearest_hopital","nearest_plage","distane_plage","distane_zoneVilla","distace_HayRiad","nearest_bidonville","Quartier"],"feature_types":["int","float","float","float","float","float","float","float","float","float","float","float","float","float","float","float","float","float","int"],"gradient_booster":{"model":{"gbtree_model_param":{"num_parallel_tree":"1","num_trees":"1000","size_leaf_vector":"0"},"tree_info":[0,0,0,0,0,0,0,0,0,0,0,0,0,0,0,0,0,0,0,0,0,0,0,0,0,0,0,0,0,0,0,0,0,0,0,0,0,0,0,0,0,0,0,0,0,0,0,0,0,0,0,0,0,0,0,0,0,0,0,0,0,0,0,0,0,0,0,0,0,0,0,0,0,0,0,0,0,0,0,0,0,0,0,0,0,0,0,0,0,0,0,0,0,0,0,0,0,0,0,0,0,0,0,0,0,0,0,0,0,0,0,0,0,0,0,0,0,0,0,0,0,0,0,0,0,0,0,0,0,0,0,0,0,0,0,0,0,0,0,0,0,0,0,0,0,0,0,0,0,0,0,0,0,0,0,0,0,0,0,0,0,0,0,0,0,0,0,0,0,0,0,0,0,0,0,0,0,0,0,0,0,0,0,0,0,0,0,0,0,0,0,0,0,0,0,0,0,0,0,0,0,0,0,0,0,0,0,0,0,0,0,0,0,0,0,0,0,0,0,0,0,0,0,0,0,0,0,0,0,0,0,0,0,0,0,0,0,0,0,0,0,0,0,0,0,0,0,0,0,0,0,0,0,0,0,0,0,0,0,0,0,0,0,0,0,0,0,0,0,0,0,0,0,0,0,0,0,0,0,0,0,0,0,0,0,0,0,0,0,0,0,0,0,0,0,0,0,0,0,0,0,0,0,0,0,0,0,0,0,0,0,0,0,0,0,0,0,0,0,0,0,0,0,0,0,0,0,0,0,0,0,0,0,0,0,0,0,0,0,0,0,0,0,0,0,0,0,0,0,0,0,0,0,0,0,0,0,0,0,0,0,0,0,0,0,0,0,0,0,0,0,0,0,0,0,0,0,0,0,0,0,0,0,0,0,0,0,0,0,0,0,0,0,0,0,0,0,0,0,0,0,0,0,0,0,0,0,0,0,0,0,0,0,0,0,0,0,0,0,0,0,0,0,0,0,0,0,0,0,0,0,0,0,0,0,0,0,0,0,0,0,0,0,0,0,0,0,0,0,0,0,0,0,0,0,0,0,0,0,0,0,0,0,0,0,0,0,0,0,0,0,0,0,0,0,0,0,0,0,0,0,0,0,0,0,0,0,0,0,0,0,0,0,0,0,0,0,0,0,0,0,0,0,0,0,0,0,0,0,0,0,0,0,0,0,0,0,0,0,0,0,0,0,0,0,0,0,0,0,0,0,0,0,0,0,0,0,0,0,0,0,0,0,0,0,0,0,0,0,0,0,0,0,0,0,0,0,0,0,0,0,0,0,0,0,0,0,0,0,0,0,0,0,0,0,0,0,0,0,0,0,0,0,0,0,0,0,0,0,0,0,0,0,0,0,0,0,0,0,0,0,0,0,0,0,0,0,0,0,0,0,0,0,0,0,0,0,0,0,0,0,0,0,0,0,0,0,0,0,0,0,0,0,0,0,0,0,0,0,0,0,0,0,0,0,0,0,0,0,0,0,0,0,0,0,0,0,0,0,0,0,0,0,0,0,0,0,0,0,0,0,0,0,0,0,0,0,0,0,0,0,0,0,0,0,0,0,0,0,0,0,0,0,0,0,0,0,0,0,0,0,0,0,0,0,0,0,0,0,0,0,0,0,0,0,0,0,0,0,0,0,0,0,0,0,0,0,0,0,0,0,0,0,0,0,0,0,0,0,0,0,0,0,0,0,0,0,0,0,0,0,0,0,0,0,0,0,0,0,0,0,0,0,0,0,0,0,0,0,0,0,0,0,0,0,0,0,0,0,0,0,0,0,0,0,0,0,0,0,0,0,0,0,0,0,0,0,0,0,0,0,0,0,0,0,0,0,0,0,0,0,0,0,0,0,0,0,0,0,0,0,0,0,0,0,0,0,0,0,0,0,0,0,0,0,0,0,0,0,0,0,0,0,0,0,0,0,0,0,0,0,0,0,0,0,0,0,0,0,0,0,0,0,0,0,0,0,0,0,0,0,0,0,0,0,0,0,0,0,0,0,0,0,0,0,0,0,0,0,0,0,0,0,0,0,0,0,0,0,0,0,0,0,0,0,0,0,0,0,0,0,0,0,0,0,0,0,0,0,0,0,0,0,0,0,0,0,0,0,0,0,0,0,0,0,0,0,0,0,0,0,0,0,0,0,0,0,0,0,0,0,0,0,0,0,0,0,0,0,0,0,0,0,0,0,0,0,0,0,0,0,0,0,0,0,0,0,0,0,0,0,0,0,0,0,0,0,0,0,0,0,0,0,0,0,0,0,0,0,0],"trees":[{"base_weights":[4.2173912E5,5.8661106E5,2.513476E5,6.035441E5,3.571343E5,4.0353178E5,2.3029308E5,6.3486356E5,4.9099994E5,4.5496625E5,3.080969E5,3.4929544E5,1.2836818E6,2.230701E5,2.9735566E5,7.354976E5,5.9489044E5,3.436584E5,4.9950916E5,5.800808E5,4.1996066E5,4.2313006E5,2.5818305E5,1.7692144E5,4.3434975E5,2.3097822E5,1.2329218E5,7.227364E5,1.0661442E6,7.588297E5,5.7239075E5,3.69937E5,1.6105508E5,4.8823753E5,6.04367E5,8.666663E5,4.1133284E5,1.9999958E5,4.306717E5,1.8230961E5,2.7446612E5,1.3868408E5,4.112064E5,3.718513E5,4.9852444E5,2.1614939E5,2.8090938E5,8.9213445E4,1.5164706E5,7.809245E5,6.349133E5,5.9545406E5,1.1209635E6,7.1134225E5,9.179186E5,5.87171E5,5.278383E5,3.4394203E5,4.426918E5,5.1097103E5,3.6438212E5,2.3999958E5,4.1443166E5,5.428841E5,4.0409872E5,1.6115055E5,2.2199177E5,2.8196022E5,1.7162617E5,1.1471309E5,1.6964756E5,2.0099955E5,4.4571378E5,4.5808738E5,2.703894E5,5.2195706E5,4.4926994E5,2.2397142E5,1.622569E5,2.7890294E5,3.2116247E5,1.3153012E5,8.042186E4,2.3453075E5,8.105213E4],"categories":[],"categories_nodes":[],"categories_segments":[],"categories_sizes":[],"default_left":[1,1,1,1,1,1,1,1,1,1,1,1,0,1,0,1,1,1,1,0,1,1,1,1,1,1,1,1,1,1,1,1,0,1,0,0,1,0,1,1,1,1,1,1,1,1,1,1,1,0,0,0,0,0,0,0,0,0,0,0,0,0,0,0,0,0,0,0,0,0,0,0,0,0,0,0,0,0,0,0,0,0,0,0,0],"id":0,"left_children":[1,3,5,7,9,11,13,15,17,19,21,23,-1,25,-1,27,29,31,33,-1,35,37,39,41,43,45,47,49,51,53,55,57,-1,59,-1,-1,61,-1,63,65,67,69,71,73,75,77,79,81,83,-1,-1,-1,-1,-1,-1,-1,-1,-1,-1,-1,-1,-1,-1,-1,-1,-1,-1,-1,-1,-1,-1,-1,-1,-1,-1,-1,-1,-1,-1,-1,-1,-1,-1,-1,-1],"loss_changes":[6.269396E14,4.38645E13,3.5085588E13,3.692088E13,3.6114048E12,6.318385E13,4.6065873E12,3.278966E13,2.7170366E12,8.9073176E11,2.89943E12,1.8352227E13,0E0,6.846547E12,0E0,9.119826E12,2.1391085E13,5.594342E11,2.276769E12,0E0,4.3745752E11,1.7806079E11,4.0460983E11,3.6786437E12,3.1877214E12,5.915982E12,6.0683505E11,1.1053367E13,1.5257704E12,4.718458E12,3.1188173E12,5.9560165E10,0E0,5.3606896E12,0E0,0E0,8.845787E9,0E0,2.3087546E11,2.132122E10,1.8358469E11,2.4774024E11,3.3112457E11,3.6385E12,2.410131E11,2.58906E12,5.9441676E10,9.879893E10,2.0230486E12,0E0,0E0,0E0,0E0,0E0,0E0,0E0,0E0,0E0,0E0,0E0,0E0,0E0,0E0,0E0,0E0,0E0,0E0,0E0,0E0,0E0,0E0,0E0,0E0,0E0,0E0,0E0,0E0,0E0,0E0,0E0,0E0,0E0,0E0,0E0,0E0],"parents":[2147483647,0,0,1,1,2,2,3,3,4,4,5,5,6,6,7,7,8,8,9,9,10,10,11,11,13,13,15,15,16,16,17,17,18,18,20,20,21,21,22,22,23,23,24,24,25,25,26,26,27,27,28,28,29,29,30,30,31,31,33,33,36,36,38,38,39,39,40,40,41,41,42,42,43,43,44,44,45,45,46,46,47,47,48,48],"right_children":[2,4,6,8,10,12,14,16,18,20,22,24,-1,26,-1,28,30,32,34,-1,36,38,40,42,44,46,48,50,52,54,56,58,-1,60,-1,-1,62,-1,64,66,68,70,72,74,76,78,80,82,84,-1,-1,-1,-1,-1,-1,-1,-1,-1,-1,-1,-1,-1,-1,-1,-1,-1,-1,-1,-1,-1,-1,-1,-1,-1,-1,-1,-1,-1,-1,-1,-1,-1,-1,-1,-1],"split_conditions":[6.756251E-2,1.9926429E-2,1.0006744E-1,5.960643E-2,1.5087215E-3,9.866278E-2,1.5845197E-1,2.6634214E-3,4.7432976E-3,3.495347E-2,3.2999203E-2,6.059285E-3,1.2836818E5,1.2383981E-1,2.9735566E4,5.849658E-2,2.678203E-3,1.8152645E-2,2.1531181E-2,5.8008082E4,2.955174E-4,1.133359E-3,3.3149768E-2,4.618273E-3,1.0074697E-2,3.5168644E-2,1.5690494E-1,1.0697968E-2,1.0682815E-2,3.725283E-2,1.530179E-2,4.7302246E-3,1.6105508E4,1.837841E-2,6.04367E4,8.666663E4,2.889552E-2,1.9999959E4,2.5131868E-2,2.533089E-3,3.634574E-2,1.2704835E-3,2.4954937E-3,8.121295E-3,3.59385E-2,2.911909E-2,1.6929814E-1,1.5560144E-1,1.2628427E-1,7.809245E4,6.3491332E4,5.9545406E4,1.1209635E5,7.113423E4,9.179187E4,5.87171E4,5.2783832E4,3.4394203E4,4.4269184E4,5.1097105E4,3.6438215E4,2.3999959E4,4.1443168E4,5.4288414E4,4.040987E4,1.6115055E4,2.2199178E4,2.8196021E4,1.7162617E4,1.147131E4,1.6964756E4,2.0099955E4,4.457138E4,4.580874E4,2.7038941E4,5.2195707E4,4.4926996E4,2.2397143E4,1.622569E4,2.7890295E4,3.2116248E4,1.3153013E4,8.042186E3,2.3453076E4,8.1052134E3],"split_indices":[16,10,16,16,3,2,16,15,6,2,16,3,0,10,0,16,10,2,2,0,3,11,16,6,6,10,16,10,2,2,10,10,0,2,0,0,6,0,16,3,2,11,3,10,10,11,2,6,10,0,0,0,0,0,0,0,0,0,0,0,0,0,0,0,0,0,0,0,0,0,0,0,0,0,0,0,0,0,0,0,0,0,0,0,0],"split_type":[0,0,0,0,0,0,0,0,0,0,0,0,0,0,0,0,0,0,0,0,0,0,0,0,0,0,0,0,0,0,0,0,0,0,0,0,0,0,0,0,0,0,0,0,0,0,0,0,0,0,0,0,0,0,0,0,0,0,0,0,0,0,0,0,0,0,0,0,0,0,0,0,0,0,0,0,0,0,0,0,0,0,0,0,0],"sum_hessian":[2.2321E4,1.1343E4,1.0978E4,1.0562E4,7.81E2,1.332E3,9.646E3,8.259E3,2.303E3,2.58E2,5.23E2,1.256E3,7.6E1,8.712E3,9.34E2,2.343E3,5.916E3,1.28E2,2.175E3,5.3E1,2.05E2,1.56E2,3.67E2,4.16E2,8.4E2,8.071E3,6.41E2,2.259E3,8.4E1,7.1E2,5.206E3,1.11E2,1.7E1,1.969E3,2.06E2,2E0,2.03E2,6E0,1.5E2,6.7E1,3E2,3.59E2,5.7E1,4.29E2,4.11E2,6.227E3,1.844E3,2.93E2,3.48E2,1.354E3,9.05E2,1E1,7.4E1,5.51E2,1.59E2,3.9E3,1.306E3,8.6E1,2.5E1,1.661E3,3.08E2,5E0,1.98E2,2.5E1,1.25E2,4.7E1,2E1,2.78E2,2.2E1,2.05E2,1.54E2,9E0,4.8E1,2.3E2,1.99E2,2.72E2,1.39E2,5.435E3,7.92E2,1.764E3,8E1,4.8E1,2.45E2,1.59E2,1.89E2],"tree_param":{"num_deleted":"0","num_feature":"19","num_nodes":"85","size_leaf_vector":"0"}},{"base_weights":[3.7964638E5,2.3054716E5,5.878547E5,3.2908312E5,1.9971339E5,5.070545E5,7.908529E5,2.4840681E5,3.88411E5,1.7204347E5,2.3117281E5,5.2976544E5,3.9316647E5,7.3716556E5,9.8722606E5,2.948008E5,2.2547956E5,4.149756E5,3.4802006E5,1.8031602E5,1.1760567E5,1.1509991E5,2.3779216E5,4.797571E5,5.7745494E5,4.414862E5,3.163753E5,7.8421706E5,6.361832E5,1.1165754E6,9.042089E5,2.5827116E5,3.5178044E5,3.0607747E5,2.1316536E5,3.616264E5,4.2457028E5,3.168504E5,3.8194922E5,1.7642486E5,2.281585E5,7.939275E4,1.9935419E5,2.8187778E5,1.09886305E5,2.2361903E5,2.6051494E5,4.9557347E5,4.406888E5,6.499166E5,5.550242E5,4.060523E5,4.7894153E5,2.8469225E5,3.471763E5,7.2174194E5,8.4584925E5,6.168318E5,9.685427E5,1.0367683E6,1.2797736E6,8.47606E5,1.3101281E6,2.1596081E5,2.7928025E5,3.597186E5,1.7333484E5,2.7422316E5,3.478976E5,1.2918815E5,2.2393484E5,3.794026E5,3.0209912E5,4.1587762E5,4.8337666E5,3.2757666E5,2.6313394E5,3.9950803E5,3.4259966E5,1.8023597E5,1.4613258E5,9.007432E4,5.3991938E4,1.0625301E5,3.031377E5,2.3757522E5,1.8191347E5,3.2172303E5,2.5696572E5,5.0807616E5,4.3639025E5,4.055108E5,4.6343372E5,5.511091E5,6.7358256E5,6.5630256E5,5.482088E5,4.1203138E5,2.8500225E5,4.73606E5,7.256935E5,1.9817681E5,3.505056E5,7.0619056E5,8.910267E5,8.0796256E5,9.470845E5,6.3232125E5,3.498184E5,1.0448605E6,2.8926825E5,1.0639441E6,7.776888E5,7.1185944E5,1.3734471E6],"categories":[],"categories_nodes":[],"categories_segments":[],"categories_sizes":[],"default_left":[1,1,1,1,1,1,1,1,1,1,1,1,1,1,1,1,1,1,1,1,1,1,1,1,1,1,1,1,1,1,1,1,1,1,1,1,1,1,1,1,0,1,0,0,1,1,1,1,1,1,1,1,1,0,1,1,1,1,0,1,0,1,1,0,0,0,0,0,0,0,0,0,0,0,0,0,0,0,0,0,0,0,0,0,0,0,0,0,0,0,0,0,0,0,0,0,0,0,0,0,0,0,0,0,0,0,0,0,0,0,0,0,0,0,0],"id":1,"left_children":[1,3,5,7,9,11,13,15,17,19,21,23,25,27,29,31,33,35,37,39,41,43,45,47,49,51,53,55,57,59,61,63,65,67,69,71,73,75,77,79,-1,81,-1,-1,83,85,87,89,91,93,95,97,99,-1,101,103,105,107,-1,109,-1,111,113,-1,-1,-1,-1,-1,-1,-1,-1,-1,-1,-1,-1,-1,-1,-1,-1,-1,-1,-1,-1,-1,-1,-1,-1,-1,-1,-1,-1,-1,-1,-1,-1,-1,-1,-1,-1,-1,-1,-1,-1,-1,-1,-1,-1,-1,-1,-1,-1,-1,-1,-1,-1],"loss_changes":[6.92822E14,3.9458737E13,1.5236987E14,1.4736435E13,8.587586E12,1.7030619E13,2.7210497E13,1.3333441E12,1.7697446E12,2.3552191E12,3.5338186E12,1.2968654E13,3.9864175E12,9.407857E12,5.0681956E12,8.0833046E11,8.1311616E11,3.9466723E11,6.340697E11,8.12185E11,2.1677432E12,1.8814285E11,1.3536361E12,1.4604902E12,4.2521518E12,7.080153E11,3.2371638E11,4.8494207E12,3.6988896E12,1.4994469E12,6.931205E12,1.770227E11,1.7279274E11,5.779541E10,6.6835395E11,6.527176E10,2.6006363E11,1.3160048E11,9.5974064E10,4.630344E11,0E0,1.2482799E11,0E0,0E0,1.4051705E11,1.5323806E12,2.8185723E11,1.2034297E12,4.4575385E11,1.1838004E12,1.1408507E12,1.4023655E11,8.418807E10,0E0,3.7190894E10,1.2425542E12,1.9503178E12,2.4009538E12,0E0,6.111269E11,0E0,3.8615615E12,5.754501E11,0E0,0E0,0E0,0E0,0E0,0E0,0E0,0E0,0E0,0E0,0E0,0E0,0E0,0E0,0E0,0E0,0E0,0E0,0E0,0E0,0E0,0E0,0E0,0E0,0E0,0E0,0E0,0E0,0E0,0E0,0E0,0E0,0E0,0E0,0E0,0E0,0E0,0E0,0E0,0E0,0E0,0E0,0E0,0E0,0E0,0E0,0E0,0E0,0E0,0E0,0E0,0E0],"parents":[2147483647,0,0,1,1,2,2,3,3,4,4,5,5,6,6,7,7,8,8,9,9,10,10,11,11,12,12,13,13,14,14,15,15,16,16,17,17,18,18,19,19,20,20,21,21,22,22,23,23,24,24,25,25,26,26,27,27,28,28,29,29,30,30,31,31,32,32,33,33,34,34,35,35,36,36,37,37,38,38,39,39,41,41,44,44,45,45,46,46,47,47,48,48,49,49,50,50,51,51,52,52,54,54,55,55,56,56,57,57,59,59,61,61,62,62],"right_children":[2,4,6,8,10,12,14,16,18,20,22,24,26,28,30,32,34,36,38,40,42,44,46,48,50,52,54,56,58,60,62,64,66,68,70,72,74,76,78,80,-1,82,-1,-1,84,86,88,90,92,94,96,98,100,-1,102,104,106,108,-1,110,-1,112,114,-1,-1,-1,-1,-1,-1,-1,-1,-1,-1,-1,-1,-1,-1,-1,-1,-1,-1,-1,-1,-1,-1,-1,-1,-1,-1,-1,-1,-1,-1,-1,-1,-1,-1,-1,-1,-1,-1,-1,-1,-1,-1,-1,-1,-1,-1,-1,-1,-1,-1,-1,-1],"split_conditions":[6.45E1,5.2149285E-2,9.15E1,5.45E1,4.95E1,6.6941045E-2,1.185E2,1.3397673E-2,1.2970315E-2,1.2387262E-1,1.2679624E-3,7.75E1,9.958718E-2,3.826222E-2,5E-1,4.95E1,3.299854E-2,5.75E1,5.95E1,3.3224538E-2,1.567178E-1,8.1085265E-3,5.65E1,3.8776398E-2,5E-1,7.45E1,7.55E1,1.015E2,5.5E0,1.1729525E-2,5.5E0,3.85E1,5.022654E-2,5.05E1,4.05E1,4.6919595E-2,9.1547705E-3,3.3508604E-3,4.722429E-2,4.730296E-2,2.281585E4,1.5753362E-1,1.993542E4,2.818778E4,1.2202237E-2,2.9120304E-2,8.129536E-3,2.5E0,7.05E1,7.2018225E-3,1.6708833E-3,7.585446E-3,9.261383E-2,2.8469225E4,1.5627353E-1,5.365655E-2,5.042694E-2,3.8308438E-2,9.685427E4,4.002164E-2,1.2797737E5,3.1105047E-3,1.35E2,2.1596082E4,2.7928025E4,3.597186E4,1.7333484E4,2.7422316E4,3.478976E4,1.2918815E4,2.2393484E4,3.794026E4,3.0209912E4,4.158776E4,4.8337668E4,3.2757666E4,2.6313395E4,3.9950805E4,3.4259965E4,1.8023598E4,1.4613258E4,9.007433E3,5.399194E3,1.0625301E4,3.031377E4,2.3757521E4,1.8191348E4,3.2172303E4,2.5696572E4,5.0807617E4,4.3639027E4,4.0551082E4,4.634337E4,5.5110914E4,6.735826E4,6.563026E4,5.4820883E4,4.1203137E4,2.8500225E4,4.73606E4,7.256935E4,1.9817682E4,3.505056E4,7.0619055E4,8.910267E4,8.079626E4,9.470845E4,6.3232125E4,3.498184E4,1.04486055E5,2.8926826E4,1.06394414E5,7.776888E4,7.1185945E4,1.3734472E5],"split_indices":[0,7,0,0,0,16,0,10,10,10,11,0,7,7,18,0,16,0,0,10,7,10,0,7,18,0,0,0,18,10,18,0,7,0,0,7,5,11,16,5,0,16,0,0,10,11,11,18,0,10,10,11,7,0,5,16,16,5,0,7,0,10,0,0,0,0,0,0,0,0,0,0,0,0,0,0,0,0,0,0,0,0,0,0,0,0,0,0,0,0,0,0,0,0,0,0,0,0,0,0,0,0,0,0,0,0,0,0,0,0,0,0,0,0,0],"split_type":[0,0,0,0,0,0,0,0,0,0,0,0,0,0,0,0,0,0,0,0,0,0,0,0,0,0,0,0,0,0,0,0,0,0,0,0,0,0,0,0,0,0,0,0,0,0,0,0,0,0,0,0,0,0,0,0,0,0,0,0,0,0,0,0,0,0,0,0,0,0,0,0,0,0,0,0,0,0,0,0,0,0,0,0,0,0,0,0,0,0,0,0,0,0,0,0,0,0,0,0,0,0,0,0,0,0,0,0,0,0,0,0,0,0,0],"sum_hessian":[2.2321E4,1.3008E4,9.313E3,3.098E3,9.91E3,6.664E3,2.649E3,1.315E3,1.783E3,5.276E3,4.634E3,5.553E3,1.111E3,2.084E3,5.65E2,4.31E2,8.84E2,1.07E3,7.13E2,4.578E3,6.98E2,2.51E2,4.383E3,2.716E3,2.837E3,6.79E2,4.32E2,1.417E3,6.67E2,2.16E2,3.49E2,2.66E2,1.65E2,1.14E2,7.7E2,1.69E2,9.01E2,3.77E2,3.36E2,4.238E3,3.4E2,4.77E2,2.21E2,6E0,2.45E2,2.706E3,1.677E3,1.925E3,7.91E2,6.64E2,2.173E3,3.55E2,3.24E2,2.18E2,2.14E2,7.1E2,7.07E2,6.33E2,3.4E1,1.5E2,6.6E1,3.09E2,4E1,9.2E1,1.74E2,1.57E2,8E0,6.9E1,4.5E1,8.9E1,6.81E2,1.26E2,4.3E1,7.92E2,1.09E2,3.1E2,6.7E1,2.26E2,1.1E2,3.76E3,4.78E2,3.34E2,1.43E2,2.42E2,3E0,2.024E3,6.82E2,8.7E1,1.59E3,1.583E3,3.42E2,3.18E2,4.73E2,1.33E2,5.31E2,1.31E2,2.042E3,3.36E2,1.9E1,3.2E2,4E0,6E0,2.08E2,6.55E2,5.5E1,5.21E2,1.86E2,5.97E2,3.6E1,1.48E2,2E0,7.2E1,2.37E2,5E0,3.5E1],"tree_param":{"num_deleted":"0","num_feature":"19","num_nodes":"115","size_leaf_vector":"0"}},{"base_weights":[3.4179966E5,4.766402E5,2.027196E5,3.103719E5,4.9405216E5,3.1781588E5,1.866364E5,3.808937E5,2.4531136E5,5.2909306E5,4.2087178E5,2.7345972E5,1.045277E6,1.7944186E5,2.4015414E5,4.1722894E5,3.4963222E5,1.6614831E5,2.7186888E5,4.7171728E5,5.834948E5,4.7433466E5,3.8874088E5,1.540824E5,3.5077734E5,1.8655719E5,7.948562E4,2.2330939E5,2.4322514E5,4.1109756E5,6.6547575E5,4.1824762E5,3.3086256E5,2.9113916E5,1.5044823E5,4.0414453E5,2.3907103E5,5.7999175E5,4.634768E5,5.538026E5,6.661926E5,5.238239E5,4.0087647E5,3.7155466E5,4.994512E5,1.3469647E5,4.2492853E5,1.7329558E5,3.7640222E5,1.7504795E5,2.2823066E5,8.9777336E4,4.8630242E4,2.8790772E5,2.3973872E5,4.371317E5,3.7764112E5,2.5115281E5,4.6190853E5,2.2542627E5,1.2953617E5,2.1273167E5,4.6655338E5,3.0333375E5,2.2444662E5,5.084885E5,7.379924E5,4.4619716E5,5.1992953E5,6.663365E5,5.217095E5,1.0495106E6,6.536247E5,5.1362575E5,1.0546272E6,5.376901E5,3.8015938E5,3.877165E5,2.669322E5,5.9100944E5,4.828734E5,1.0249346E5,1.9743473E5,2.8170675E5,4.5949125E5,1.3078655E5,3.0068688E5,3.4187662E5,4.1398806E5,1.816343E5,1.29497266E5,2.2655597E5,2.816711E5,7.015485E4,1.4006822E5,1.2110423E4,4.932137E4,1.8302653E5,2.412335E5],"categories":[],"categories_nodes":[],"categories_segments":[],"categories_sizes":[],"default_left":[1,1,1,1,1,1,1,1,1,1,1,1,0,1,1,1,1,1,1,1,1,1,1,1,1,1,1,0,1,1,0,1,0,0,1,1,1,1,1,1,1,1,1,1,1,1,1,1,1,1,1,1,1,0,1,0,0,0,0,0,0,0,0,0,0,0,0,0,0,0,0,0,0,0,0,0,0,0,0,0,0,0,0,0,0,0,0,0,0,0,0,0,0,0,0,0,0,0,0],"id":2,"left_children":[1,3,5,7,9,11,13,15,17,19,21,23,-1,25,27,29,31,33,35,37,39,41,43,45,47,49,51,-1,53,55,-1,57,-1,-1,59,61,63,65,67,69,71,73,75,77,79,81,83,85,87,89,91,93,95,-1,97,-1,-1,-1,-1,-1,-1,-1,-1,-1,-1,-1,-1,-1,-1,-1,-1,-1,-1,-1,-1,-1,-1,-1,-1,-1,-1,-1,-1,-1,-1,-1,-1,-1,-1,-1,-1,-1,-1,-1,-1,-1,-1,-1,-1],"loss_changes":[4.18522E14,3.2656247E13,2.028446E13,4.848045E12,2.6079578E13,4.314606E13,3.670553E12,4.3911007E11,1.1384683E12,2.1361825E13,5.529032E12,1.1668E13,0E0,6.0348485E12,4.6556774E9,8.10717E10,2.2609396E11,2.3877937E11,1.7254905E12,2.7460947E12,8.357738E12,4.3124492E12,3.7777593E12,2.5733188E12,3.4366953E12,3.7683137E12,1.756876E11,0E0,7.943592E10,3.5253125E10,0E0,2.99834E11,0E0,0E0,1.7463194E11,8.8030996E11,2.50509E11,2.279663E12,2.8358864E12,9.118283E12,3.8135619E12,3.4640925E12,1.2269514E12,2.9519512E12,1.35052394E11,9.273134E11,3.3911996E10,4.96787E11,7.3050515E11,1.8443529E12,8.965744E10,4.0859022E11,3.037266E9,0E0,3.1293702E10,0E0,0E0,0E0,0E0,0E0,0E0,0E0,0E0,0E0,0E0,0E0,0E0,0E0,0E0,0E0,0E0,0E0,0E0,0E0,0E0,0E0,0E0,0E0,0E0,0E0,0E0,0E0,0E0,0E0,0E0,0E0,0E0,0E0,0E0,0E0,0E0,0E0,0E0,0E0,0E0,0E0,0E0,0E0,0E0],"parents":[2147483647,0,0,1,1,2,2,3,3,4,4,5,5,6,6,7,7,8,8,9,9,10,10,11,11,13,13,14,14,15,15,16,16,17,17,18,18,19,19,20,20,21,21,22,22,23,23,24,24,25,25,26,26,28,28,29,29,31,31,34,34,35,35,36,36,37,37,38,38,39,39,40,40,41,41,42,42,43,43,44,44,45,45,46,46,47,47,48,48,49,49,50,50,51,51,52,52,54,54],"right_children":[2,4,6,8,10,12,14,16,18,20,22,24,-1,26,28,30,32,34,36,38,40,42,44,46,48,50,52,-1,54,56,-1,58,-1,-1,60,62,64,66,68,70,72,74,76,78,80,82,84,86,88,90,92,94,96,-1,98,-1,-1,-1,-1,-1,-1,-1,-1,-1,-1,-1,-1,-1,-1,-1,-1,-1,-1,-1,-1,-1,-1,-1,-1,-1,-1,-1,-1,-1,-1,-1,-1,-1,-1,-1,-1,-1,-1,-1,-1,-1,-1,-1,-1],"split_conditions":[5.280897E-2,1.3774367E-2,1.00070074E-1,2.582357E-2,3.8694024E-2,9.222041E-2,1.5672258E-1,1.9926999E-2,2.6433669E-2,2.6844382E-2,3.3816276E-3,4.8457544E-2,1.045277E5,1.2377177E-1,1.5136072E-1,1.9644912E-2,2.6302699E-3,3.308439E-2,2.6848592E-2,5.3734966E-3,9.712493E-3,6.548411E-2,1.7294612E-2,1.3236642E-2,2.6265034E-3,1.6501203E-2,1.5753362E-1,2.233094E4,1.4483017E-1,1.8015902E-2,6.654758E4,1.4315476E-3,3.3086258E4,2.9113916E4,2.4619544E-2,2.8134461E-2,3.2999203E-2,2.8077839E-2,3.6327213E-2,1.4098429E-3,2.844062E-3,4.5976423E-2,5.8747595E-4,7.064787E-3,7.239978E-3,3.9154864E-3,5.4130077E-2,7.1682364E-2,8.5354686E-2,1.15585364E-1,1.4167365E-1,1.5568334E-1,1.2634668E-1,2.8790771E4,1.543661E-1,4.3713168E4,3.7764113E4,2.5115281E4,4.6190855E4,2.2542627E4,1.2953617E4,2.1273168E4,4.665534E4,3.0333375E4,2.2444662E4,5.084885E4,7.379924E4,4.4619715E4,5.1992953E4,6.663365E4,5.217095E4,1.0495106E5,6.536247E4,5.1362574E4,1.0546273E5,5.376901E4,3.8015938E4,3.8771652E4,2.6693219E4,5.9100945E4,4.828734E4,1.0249347E4,1.9743475E4,2.8170676E4,4.5949125E4,1.3078655E4,3.0068688E4,3.4187664E4,4.139881E4,1.816343E4,1.2949727E4,2.2655598E4,2.816711E4,7.0154854E3,1.4006822E4,1.2110424E3,4.932137E3,1.8302654E4,2.412335E4],"split_indices":[7,17,16,7,7,7,7,10,7,17,12,17,0,10,12,10,12,16,7,10,6,16,10,10,6,6,16,0,17,10,0,12,0,0,6,6,16,6,7,12,7,17,12,12,12,6,7,16,16,16,6,7,10,0,6,0,0,0,0,0,0,0,0,0,0,0,0,0,0,0,0,0,0,0,0,0,0,0,0,0,0,0,0,0,0,0,0,0,0,0,0,0,0,0,0,0,0,0,0],"split_type":[0,0,0,0,0,0,0,0,0,0,0,0,0,0,0,0,0,0,0,0,0,0,0,0,0,0,0,0,0,0,0,0,0,0,0,0,0,0,0,0,0,0,0,0,0,0,0,0,0,0,0,0,0,0,0,0,0,0,0,0,0,0,0,0,0,0,0,0,0,0,0,0,0,0,0,0,0,0,0,0,0,0,0,0,0,0,0,0,0,0,0,0,0,0,0,0,0,0,0],"sum_hessian":[2.2321E4,1.1332E4,1.0989E4,1.076E3,1.0256E4,1.345E3,9.644E3,5.14E2,5.62E2,6.931E3,3.325E3,1.269E3,7.6E1,8.505E3,1.139E3,2.32E2,2.82E2,1.43E2,4.19E2,3.378E3,3.553E3,1.243E3,2.082E3,5E2,7.69E2,7.939E3,5.66E2,1.87E2,9.52E2,2.29E2,3E0,5.6E1,2.26E2,1.4E1,1.29E2,8.1E1,3.38E2,2.34E2,3.144E3,2.62E3,9.33E2,7.39E2,5.04E2,1.806E3,2.76E2,4.68E2,3.2E1,9.8E1,6.71E2,6.225E3,1.714E3,4.23E2,1.43E2,6.3E1,8.89E2,1.22E2,1.07E2,1.3E1,4.3E1,2.6E1,1.03E2,2.1E1,6E1,5.9E1,2.79E2,1.64E2,7E1,2.414E3,7.3E2,5.77E2,2.043E3,2.7E1,9.06E2,7.27E2,1.2E1,6.3E1,4.41E2,1.562E3,2.44E2,3.7E1,2.39E2,3.11E2,1.57E2,8E0,2.4E1,7.5E1,2.3E1,3.55E2,3.16E2,5.436E3,7.89E2,1.667E3,4.7E1,3.06E2,1.17E2,3E0,1.4E2,2.6E1,8.63E2],"tree_param":{"num_deleted":"0","num_feature":"19","num_nodes":"99","size_leaf_vector":"0"}},{"base_weights":[3.0770478E5,1.9595981E5,5.0113238E5,1.6113398E5,2.8581744E5,4.4343866E5,7.1201744E5,1.4088142E5,1.8929495E5,3.2943416E5,2.1293006E5,4.0853434E5,5.0737534E5,8.5335294E5,6.5809725E5,1.4721627E5,9.350756E4,1.11731445E5,1.9731753E5,3.1883494E5,3.964963E5,2.0939823E5,2.3529911E5,4.169438E5,2.631021E5,5.854599E5,4.7840025E5,7.8023006E5,1.01579075E6,6.3805075E5,8.7980975E5,1.4294602E5,1.8809195E5,7.368712E4,1.5474025E5,2.269864E5,1.0114997E5,2.6933647E5,1.8977119E5,2.945872E5,3.3257322E5,9.197405E5,3.8078647E5,4.9448997E5,4.0352922E5,2.7234653E5,2.0571964E5,5.484711E5,6.161894E5,4.8892834E5,3.096939E5,5.7579425E5,7.948124E5,6.495466E5,1.0654686E6,6.4768925E5,3.0643203E5,7.0351275E5,1.1510789E6,1.8576488E5,1.4028994E5,2.2334225E5,1.82773E5,2.8220273E4,8.118659E4,1.2509489E4,2.4042011E5,7.8596516E4,1.3158486E5,2.655722E5,4.8649838E5,1.9959152E5,1.6402494E5,3.2983088E5,2.755694E5,3.5871312E5,3.2030953E5,3.4815828E5,1.3073746E6,4.5051556E5,3.550095E5,3.9422625E5,5.2006672E5,3.8458594E5,4.3310372E5,7.469484E5,5.37777E5,5.9695344E5,6.9941675E5,5.135507E5,4.5068572E5,1.7941138E5,6.013507E5,7.668072E5,8.928833E5,6.840902E5,2.2576953E5,6.0544394E5,7.323683E5,1.7519022E5,3.3883E5,7.185918E5,1.5234828E5],"categories":[],"categories_nodes":[],"categories_segments":[],"categories_sizes":[],"default_left":[1,1,1,1,1,1,1,1,1,1,1,1,1,1,1,1,1,1,1,1,1,0,0,1,1,1,1,1,1,1,1,1,1,1,0,1,1,1,1,1,1,1,1,1,1,0,0,1,1,1,0,1,1,1,0,1,1,1,0,0,0,0,0,0,0,0,0,0,0,0,0,0,0,0,0,0,0,0,0,0,0,0,0,0,0,0,0,0,0,0,0,0,0,0,0,0,0,0,0,0,0,0,0],"id":3,"left_children":[1,3,5,7,9,11,13,15,17,19,21,23,25,27,29,31,33,35,37,39,41,-1,-1,43,45,47,49,51,53,55,57,59,61,63,-1,65,67,69,71,73,75,77,79,81,83,-1,-1,85,87,89,-1,91,93,95,-1,97,99,101,-1,-1,-1,-1,-1,-1,-1,-1,-1,-1,-1,-1,-1,-1,-1,-1,-1,-1,-1,-1,-1,-1,-1,-1,-1,-1,-1,-1,-1,-1,-1,-1,-1,-1,-1,-1,-1,-1,-1,-1,-1,-1,-1,-1,-1],"loss_changes":[4.82382E14,4.4234472E13,9.912328E13,5.79074E12,1.2490503E13,1.4119839E13,1.2805378E13,1.7679579E12,2.6312547E12,1.6292858E12,6.7813507E10,4.9756525E12,4.8399584E12,4.920724E12,5.101012E12,8.868772E11,8.4179996E11,4.6730628E11,2.0483639E12,6.1423065E11,2.3870623E12,0E0,0E0,3.8876165E12,6.5980596E10,3.5311007E11,2.7899168E12,5.4400123E11,1.9642764E12,3.5476094E12,4.116055E12,5.1348347E11,5.142636E10,1.7944989E11,0E0,9.207271E10,2.4363008E11,1.6835727E11,8.521903E11,4.3325063E11,3.2012606E11,1.5389095E12,4.242161E11,1.2695152E12,1.7130209E12,0E0,0E0,2.032392E11,1.0119178E11,1.2346689E12,0E0,1.5549438E11,1.6950021E11,1.383292E11,0E0,3.627536E12,8.945874E10,4.3074244E11,0E0,0E0,0E0,0E0,0E0,0E0,0E0,0E0,0E0,0E0,0E0,0E0,0E0,0E0,0E0,0E0,0E0,0E0,0E0,0E0,0E0,0E0,0E0,0E0,0E0,0E0,0E0,0E0,0E0,0E0,0E0,0E0,0E0,0E0,0E0,0E0,0E0,0E0,0E0,0E0,0E0,0E0,0E0,0E0,0E0],"parents":[2147483647,0,0,1,1,2,2,3,3,4,4,5,5,6,6,7,7,8,8,9,9,10,10,11,11,12,12,13,13,14,14,15,15,16,16,17,17,18,18,19,19,20,20,23,23,24,24,25,25,26,26,27,27,28,28,29,29,30,30,31,31,32,32,33,33,35,35,36,36,37,37,38,38,39,39,40,40,41,41,42,42,43,43,44,44,47,47,48,48,49,49,51,51,52,52,53,53,55,55,56,56,57,57],"right_children":[2,4,6,8,10,12,14,16,18,20,22,24,26,28,30,32,34,36,38,40,42,-1,-1,44,46,48,50,52,54,56,58,60,62,64,-1,66,68,70,72,74,76,78,80,82,84,-1,-1,86,88,90,-1,92,94,96,-1,98,100,102,-1,-1,-1,-1,-1,-1,-1,-1,-1,-1,-1,-1,-1,-1,-1,-1,-1,-1,-1,-1,-1,-1,-1,-1,-1,-1,-1,-1,-1,-1,-1,-1,-1,-1,-1,-1,-1,-1,-1,-1,-1,-1,-1,-1,-1],"split_conditions":[6.85E1,5.75E1,9.95E1,4.95E1,5.543431E-2,8.45E1,2.0059597E-2,1.5449941E-1,4.8926915E-3,3.0692606E0,6.35E1,3.1116737E-2,2.9023696E-2,1.245E2,1.405E2,2.5025811E-2,1.5266255E-1,3.8938362E-2,4.0429752E-2,6.15E1,3.3762798E-2,2.0939824E4,2.3529912E4,2.1219503E-2,1.5635966E-1,9.05E1,1.4715566E-1,3.5104358E-3,1.0834312E-3,7.419424E-2,2.4391994E-2,3.8740516E-2,1.3498391E-3,4E1,1.5474025E4,1.8397303E-3,2.593706E-3,4.0283546E-2,8.250781E-2,3.3824458E-3,3.150347E-2,2.7978197E-2,3.7368283E-2,6.63906E-4,7.85E1,2.7234654E4,2.0571965E4,1.3969222E-2,4.938844E-2,3.4221113E-2,3.096939E4,1.015E2,4.393426E-3,4.874946E-2,1.0654687E5,1.9298875E-3,1.075E2,6.195E2,1.1510789E5,1.8576488E4,1.4028994E4,2.2334225E4,1.82773E4,2.8220273E3,8.1186597E3,1.250949E3,2.4042012E4,7.859652E3,1.3158486E4,2.6557219E4,4.864984E4,1.9959152E4,1.6402494E4,3.298309E4,2.7556941E4,3.5871312E4,3.2030953E4,3.481583E4,1.3073746E5,4.505156E4,3.550095E4,3.9422625E4,5.200667E4,3.8458594E4,4.331037E4,7.4694836E4,5.37777E4,5.9695344E4,6.994168E4,5.135507E4,4.5068574E4,1.7941139E4,6.013507E4,7.668072E4,8.9288336E4,6.840902E4,2.2576953E4,6.0544395E4,7.3236836E4,1.7519021E4,3.3883E4,7.185918E4,1.5234828E4],"split_indices":[0,0,0,0,17,0,13,6,6,14,0,6,13,0,0,6,12,13,13,0,13,0,0,13,12,0,6,6,9,17,6,13,9,0,0,6,12,13,17,12,13,6,13,9,0,0,0,13,17,17,0,0,12,17,0,9,0,0,0,0,0,0,0,0,0,0,0,0,0,0,0,0,0,0,0,0,0,0,0,0,0,0,0,0,0,0,0,0,0,0,0,0,0,0,0,0,0,0,0,0,0,0,0],"split_type":[0,0,0,0,0,0,0,0,0,0,0,0,0,0,0,0,0,0,0,0,0,0,0,0,0,0,0,0,0,0,0,0,0,0,0,0,0,0,0,0,0,0,0,0,0,0,0,0,0,0,0,0,0,0,0,0,0,0,0,0,0,0,0,0,0,0,0,0,0,0,0,0,0,0,0,0,0,0,0,0,0,0,0,0,0,0,0,0,0,0,0,0,0,0,0,0,0,0,0,0,0,0,0],"sum_hessian":[2.2321E4,1.4149E4,8.172E3,1.0199E4,3.95E3,6.419E3,1.753E3,5.936E3,4.263E3,2.469E3,1.481E3,4.157E3,2.262E3,4.8E2,1.273E3,5.234E3,7.02E2,4.01E2,3.862E3,2.137E3,3.32E2,1.288E3,1.93E2,3.928E3,2.29E2,6.07E2,1.655E3,3.35E2,1.45E2,1.171E3,1.02E2,4.743E3,4.91E2,5.32E2,1.7E2,3.2E1,3.69E2,3.63E2,3.499E3,7.81E2,1.356E3,8E0,3.24E2,5.74E2,3.354E3,1.94E2,3.5E1,2.84E2,3.23E2,1.556E3,9.9E1,2.5E1,3.1E2,1.9E1,1.26E2,1.137E3,3.4E1,6.4E1,3.8E1,2.73E2,4.47E3,5.9E1,4.32E2,7.6E1,4.56E2,2E0,3E1,2.14E2,1.55E2,3.59E2,4E0,2.528E3,9.71E2,2.68E2,5.13E2,4.24E2,9.32E2,4E0,4E0,8.3E1,2.41E2,1.2E2,4.54E2,2.053E3,1.301E3,1.1E1,2.73E2,2.69E2,5.4E1,9.39E2,6.17E2,2E0,2.3E1,2.48E2,6.2E1,1.7E1,2E0,7.64E2,3.73E2,8E0,2.6E1,6.2E1,2E0],"tree_param":{"num_deleted":"0","num_feature":"19","num_nodes":"103","size_leaf_vector":"0"}},{"base_weights":[2.770289E5,3.7273272E5,1.5129289E5,4.5885953E5,3.2796775E5,1.2928536E5,1.6093186E5,5.0085428E5,3.750459E5,1.576317E5,3.4296575E5,1.2816339E5,1.4037462E5,1.561762E5,1.953556E5,4.8470866E5,6.504031E5,3.482279E5,8.620661E5,2.9625906E5,9.929884E4,2.513543E5,3.5786728E5,1.29143766E5,1.2099786E5,1.7836444E5,1.2907171E5,1.6450586E5,1.0320671E5,1.9946634E5,1.7975025E5,3.661723E5,5.1198497E5,7.72949E5,4.7259803E5,6.530698E5,3.3163484E5,1.1478196E6,8.157706E5,2.3460633E5,3.1264466E5,8.8267195E4,3.3516538E5,3.1145572E5,1.9903258E5,3.1909988E5,3.7943925E5,1.474909E5,6.8492425E5,1.5279138E5,1.8571216E5,6.465869E4,1.2842766E5,1.8919339E5,2.0965869E5,1.6014767E5,1.8876916E5,6.150734E5,3.421278E5,5.810181E5,4.847877E5,9.49858E5,6.862649E5,6.212519E5,3.1323294E5,3.976962E5,2.9576916E5,6.7221164E4,8.3743544E5,7.247376E4,1.088236E5,2.5326525E5,6.199246E5,7.19719E5,3.0836466E5,3.627182E5,1.7539472E5,3.3034662E5,1.5786989E5,3.5174803E5,4.085763E5,1.6891931E5,1.0160101E5,1.8444475E5,2.283415E5,7.679998E4,3.6779664E4,1.6889881E5,8.429451E4,2.1280366E5,1.7759769E5,2.2980686E5,1.9987456E5],"categories":[],"categories_nodes":[],"categories_segments":[],"categories_sizes":[],"default_left":[1,1,1,1,1,1,1,1,1,1,1,1,1,1,1,1,1,1,1,1,1,1,1,0,0,1,0,1,1,1,1,1,1,1,1,0,1,0,1,0,0,1,1,1,1,1,1,0,0,1,1,1,1,1,1,0,0,0,0,0,0,0,0,0,0,0,0,0,0,0,0,0,0,0,0,0,0,0,0,0,0,0,0,0,0,0,0,0,0,0,0,0,0],"id":4,"left_children":[1,3,5,7,9,11,13,15,17,19,21,23,25,27,29,31,33,35,37,39,41,43,45,-1,-1,47,-1,49,51,53,55,57,59,61,63,-1,65,-1,67,-1,-1,69,71,73,75,77,79,-1,-1,81,83,85,87,89,91,-1,-1,-1,-1,-1,-1,-1,-1,-1,-1,-1,-1,-1,-1,-1,-1,-1,-1,-1,-1,-1,-1,-1,-1,-1,-1,-1,-1,-1,-1,-1,-1,-1,-1,-1,-1,-1,-1],"loss_changes":[2.6855357E14,4.8713653E13,2.0260166E12,1.5059632E13,2.125982E13,1.8639487E10,1.0673329E12,6.645858E12,1.8638111E13,5.445161E12,1.0376708E13,3.2380027E9,8.8620925E10,2.5848824E12,1.6106127E10,8.238351E12,5.6921235E12,6.743585E12,5.582199E10,1.2869488E11,1.2141703E12,3.321612E12,5.3917275E12,0E0,0E0,7.9041934E11,0E0,1.2370764E12,7.733599E11,2.6508001E10,1.4150533E9,2.7280466E12,3.6911553E12,1.8477838E12,2.5534692E12,0E0,2.9790967E12,0E0,1.04647465E12,0E0,0E0,1.4080593E11,3.3275275E11,4.0778282E11,2.1727669E12,4.2326903E12,3.2692083E12,0E0,0E0,2.6965684E12,5.556614E10,1.054912E11,8.520309E11,5.118414E10,1.4784922E10,0E0,0E0,0E0,0E0,0E0,0E0,0E0,0E0,0E0,0E0,0E0,0E0,0E0,0E0,0E0,0E0,0E0,0E0,0E0,0E0,0E0,0E0,0E0,0E0,0E0,0E0,0E0,0E0,0E0,0E0,0E0,0E0,0E0,0E0,0E0,0E0,0E0,0E0],"parents":[2147483647,0,0,1,1,2,2,3,3,4,4,5,5,6,6,7,7,8,8,9,9,10,10,11,11,12,12,13,13,14,14,15,15,16,16,17,17,18,18,19,19,20,20,21,21,22,22,25,25,27,27,28,28,29,29,30,30,31,31,32,32,33,33,34,34,36,36,38,38,41,41,42,42,43,43,44,44,45,45,46,46,49,49,50,50,51,51,52,52,53,53,54,54],"right_children":[2,4,6,8,10,12,14,16,18,20,22,24,26,28,30,32,34,36,38,40,42,44,46,-1,-1,48,-1,50,52,54,56,58,60,62,64,-1,66,-1,68,-1,-1,70,72,74,76,78,80,-1,-1,82,84,86,88,90,92,-1,-1,-1,-1,-1,-1,-1,-1,-1,-1,-1,-1,-1,-1,-1,-1,-1,-1,-1,-1,-1,-1,-1,-1,-1,-1,-1,-1,-1,-1,-1,-1,-1,-1,-1,-1,-1,-1],"split_conditions":[6.692545E-2,2.1503013E-2,2.4844931E-2,2.5865035E-3,4.6274327E-3,5.491611E-3,6.2334478E-2,5.1096395E-2,7.339274E-2,2.8851293E-2,1.3770346E-2,7.694143E-2,4.761768E-2,1.5449849E-1,6.6990554E-2,7.482958E-3,7.830884E-3,4.0915124E-3,7.3403224E-2,6.119761E-3,7.746582E-3,3.3533014E-3,1.2794295E-2,1.2914377E4,1.2099786E4,4.7617458E-2,1.2907171E4,1.0685584E-2,6.0373325E-2,6.4084455E-2,6.791899E-2,3.7296852E-3,9.215778E-3,1.0980215E-2,1.0354554E-2,6.530698E4,3.0470928E-3,1.1478196E5,7.3406726E-2,2.3460633E4,3.1264467E4,1.2704835E-3,9.556628E-3,2.9447107E-4,1.1741526E-3,3.681521E-3,1.6114581E-3,1.4749091E4,6.849243E4,2.911909E-2,1.4016923E-1,1.567703E-1,1.5816341E-1,1.5847719E-1,6.4556E-2,1.6014768E4,1.8876916E4,6.150734E4,3.421278E4,5.8101812E4,4.847877E4,9.4985805E4,6.862649E4,6.2125188E4,3.1323295E4,3.976962E4,2.9576916E4,6.7221167E3,8.374355E4,7.247376E3,1.088236E4,2.5326525E4,6.1992465E4,7.19719E4,3.0836467E4,3.627182E4,1.7539473E4,3.3034664E4,1.5786989E4,3.5174805E4,4.0857633E4,1.6891932E4,1.0160101E4,1.8444475E4,2.283415E4,7.6799976E3,3.6779666E3,1.688988E4,8.429451E3,2.1280365E4,1.775977E4,2.2980686E4,1.9987457E4],"split_indices":[17,4,11,11,6,4,4,17,3,4,17,17,3,6,4,4,4,4,3,3,3,11,6,0,0,3,0,4,4,4,4,4,4,6,6,0,3,0,3,0,0,11,3,3,3,11,11,0,0,11,3,6,6,6,4,0,0,0,0,0,0,0,0,0,0,0,0,0,0,0,0,0,0,0,0,0,0,0,0,0,0,0,0,0,0,0,0,0,0,0,0,0,0],"split_type":[0,0,0,0,0,0,0,0,0,0,0,0,0,0,0,0,0,0,0,0,0,0,0,0,0,0,0,0,0,0,0,0,0,0,0,0,0,0,0,0,0,0,0,0,0,0,0,0,0,0,0,0,0,0,0,0,0,0,0,0,0,0,0,0,0,0,0,0,0,0,0,0,0,0,0,0,0,0,0,0,0,0,0,0,0,0,0,0,0,0,0,0,0],"sum_hessian":[2.2321E4,1.2673E4,9.648E3,4.331E3,8.342E3,2.943E3,6.705E3,2.882E3,1.449E3,6.76E2,7.666E3,2.684E3,2.59E2,5.896E3,8.09E2,2.605E3,2.77E2,1.375E3,7.4E1,1.99E2,4.77E2,1.075E3,6.591E3,2.346E3,3.38E2,5.6E1,2.03E2,5.093E3,8.03E2,6.31E2,1.78E2,4.9E2,2.115E3,1.62E2,1.15E2,6.9E1,1.306E3,7E0,6.7E1,4.5E1,1.54E2,4.57E2,2E1,4.98E2,5.77E2,2.362E3,4.229E3,5.4E1,2E0,3.286E3,1.807E3,3.19E2,4.84E2,3.24E2,3.07E2,6.2E1,1.16E2,4.1E1,4.49E2,5.92E2,1.523E3,5E1,1.12E2,5.8E1,5.7E1,4.56E2,8.5E2,2E0,6.5E1,2.61E2,1.96E2,1.7E1,3E0,2E0,4.96E2,7.1E1,5.06E2,2.207E3,1.55E2,2.175E3,2.054E3,2.497E3,7.89E2,1.76E3,4.7E1,2.21E2,9.8E1,2.51E2,2.33E2,1.01E2,2.23E2,9.3E1,2.14E2],"tree_param":{"num_deleted":"0","num_feature":"19","num_nodes":"93","size_leaf_vector":"0"}},{"base_weights":[2.4939698E5,1.5581598E5,4.1138422E5,1.2807222E5,2.2740056E5,3.561163E5,5.7878456E5,1.1118258E5,1.5155856E5,2.6180711E5,1.75494E5,3.215146E5,3.9629462E5,5.3868956E5,7.3322894E5,1.163665E5,7.217004E4,8.910318E4,1.5817962E5,3.2748675E5,2.506672E5,2.3629922E5,1.7046286E5,3.420321E5,2.804672E5,4.107007E5,3.0713194E5,5.756744E5,4.6094644E5,8.44576E5,5.448715E5,1.130108E5,1.5270972E5,4.7315492E4,1.2397927E5,1.7558908E5,8.1088305E4,2.0574719E5,1.5309912E5,4.941942E5,3.1273397E5,2.6331656E5,2.298647E5,2.4155322E5,9.796567E4,6.769761E4,1.710532E5,3.9773534E5,3.2894306E5,2.9352362E5,2.056661E5,4.315E5,3.5747772E5,3.369284E5,2.5542366E5,8.724035E5,5.6673325E5,4.7313584E5,2.4404998E5,7.825516E5,9.166022E5,5.957037E5,4.0926112E5,1.14884875E5,4.838523E4,1.7153419E5,1.4583723E5,1.518821E4,5.322107E4,1.2468085E5,6.80331E4,-2.0643656E4,1.8849873E5,6.880445E4,1.063003E5,2.2576966E5,1.6534061E5,2.2995548E5,1.50738E5,3.1950188E5,1.1640016E6,2.7973025E5,3.8224997E5,1.9714731E5,2.6566525E5,2.5349872E5,1.9185258E5,2.3467488E5,4.1553416E5,9.997214E4,2.9519232E4,1.6652497E5,1.7607561E5,3.0104384E5,4.214355E5,3.1381928E5,3.4739653E5,2.6189652E5,3.0686484E5,1.0787529E5,2.0862208E5,4.1070206E5,4.7812994E5,3.0417478E5,3.700873E5,3.1768106E5,4.4986194E5,5.3644294E5,6.406386E5,3.718872E5,4.9744753E5,7.210874E4,2.5375619E5,7.972534E5,3.767239E5,7.791126E5,9.700703E5,4.119849E5,6.288077E5,3.501948E4,4.2547622E5],"categories":[],"categories_nodes":[],"categories_segments":[],"categories_sizes":[],"default_left":[1,1,1,1,1,1,1,1,1,1,1,1,1,1,1,1,1,1,1,1,1,1,1,1,1,1,1,1,1,1,1,1,1,1,1,1,1,1,1,1,1,1,1,1,0,1,1,1,1,1,1,1,1,1,0,0,1,1,1,1,1,1,1,0,0,0,0,0,0,0,0,0,0,0,0,0,0,0,0,0,0,0,0,0,0,0,0,0,0,0,0,0,0,0,0,0,0,0,0,0,0,0,0,0,0,0,0,0,0,0,0,0,0,0,0,0,0,0,0,0,0],"id":5,"left_children":[1,3,5,7,9,11,13,15,17,19,21,23,25,27,29,31,33,35,37,39,41,43,45,47,49,51,53,55,57,59,61,63,65,67,69,71,73,75,77,79,81,83,85,87,-1,89,91,93,95,97,99,101,103,105,-1,-1,107,109,111,113,115,117,119,-1,-1,-1,-1,-1,-1,-1,-1,-1,-1,-1,-1,-1,-1,-1,-1,-1,-1,-1,-1,-1,-1,-1,-1,-1,-1,-1,-1,-1,-1,-1,-1,-1,-1,-1,-1,-1,-1,-1,-1,-1,-1,-1,-1,-1,-1,-1,-1,-1,-1,-1,-1,-1,-1,-1,-1,-1,-1],"loss_changes":[3.3831337E14,2.8073148E13,7.5409425E13,4.029233E12,7.0102423E12,8.4184043E12,1.2157173E13,1.1922812E12,1.7491674E12,1.6548878E12,4.4246132E11,2.6900588E12,3.5217725E12,4.3725116E12,8.2436193E12,6.2167974E11,8.9423295E11,2.7065634E11,8.998879E11,6.8410357E11,4.7469455E11,6.2099292E10,7.705775E10,1.4739288E12,1.0217576E12,2.5490295E12,5.2868782E11,2.3947798E12,1.2725434E12,4.397644E11,8.3846234E11,5.7578986E11,3.190607E10,8.912365E10,3.8823526E8,9.0023395E10,1.0975288E11,2.6120552E11,5.9794E11,2.670365E12,6.1806844E11,1.4313482E11,6.494041E11,3.771151E10,0E0,9.370792E9,3.699376E9,8.218529E11,3.899864E11,3.1667834E11,2.6058162E10,1.5017957E12,3.5253964E11,4.005057E11,0E0,0E0,2.029305E12,1.0359176E12,3.1768838E10,5.707441E11,8.22503E10,4.2210217E11,2.642443E11,0E0,0E0,0E0,0E0,0E0,0E0,0E0,0E0,0E0,0E0,0E0,0E0,0E0,0E0,0E0,0E0,0E0,0E0,0E0,0E0,0E0,0E0,0E0,0E0,0E0,0E0,0E0,0E0,0E0,0E0,0E0,0E0,0E0,0E0,0E0,0E0,0E0,0E0,0E0,0E0,0E0,0E0,0E0,0E0,0E0,0E0,0E0,0E0,0E0,0E0,0E0,0E0,0E0,0E0,0E0,0E0,0E0,0E0],"parents":[2147483647,0,0,1,1,2,2,3,3,4,4,5,5,6,6,7,7,8,8,9,9,10,10,11,11,12,12,13,13,14,14,15,15,16,16,17,17,18,18,19,19,20,20,21,21,22,22,23,23,24,24,25,25,26,26,27,27,28,28,29,29,30,30,31,31,32,32,33,33,34,34,35,35,36,36,37,37,38,38,39,39,40,40,41,41,42,42,43,43,45,45,46,46,47,47,48,48,49,49,50,50,51,51,52,52,53,53,56,56,57,57,58,58,59,59,60,60,61,61,62,62],"right_children":[2,4,6,8,10,12,14,16,18,20,22,24,26,28,30,32,34,36,38,40,42,44,46,48,50,52,54,56,58,60,62,64,66,68,70,72,74,76,78,80,82,84,86,88,-1,90,92,94,96,98,100,102,104,106,-1,-1,108,110,112,114,116,118,120,-1,-1,-1,-1,-1,-1,-1,-1,-1,-1,-1,-1,-1,-1,-1,-1,-1,-1,-1,-1,-1,-1,-1,-1,-1,-1,-1,-1,-1,-1,-1,-1,-1,-1,-1,-1,-1,-1,-1,-1,-1,-1,-1,-1,-1,-1,-1,-1,-1,-1,-1,-1,-1,-1,-1,-1,-1,-1],"split_conditions":[6.85E1,5.75E1,9.65E1,4.95E1,5.276581E-2,8.15E1,1.235E2,1.2387262E-1,5.046947E-3,2.602703E-2,2.9995361E-2,6.0809914E-2,2.7915405E-2,3.775093E-2,2.122144E-2,3.5905298E-2,1.5671465E-1,2.8817568E-2,1.2976849E-2,1.7873127E-2,1.2975158E-2,9.528913E-2,3.0433714E-2,1.105042E-2,5.25268E-2,5.94863E-2,3.8246624E-2,4.293006E-3,9.980337E-2,1.0210054E-2,5.687634E-2,3.3171874E-2,4.521066E-2,4E1,6.736858E-2,1.6377743E-3,9.677074E-3,4.6708554E-2,3.3043116E-2,1.7819382E-2,7.225422E-3,2.5834884E-2,4.70628E-2,2.9732633E-2,9.796567E3,2.5991509E-3,5.95E1,7.25E1,7.55E1,6.317972E-2,1.5384457E-1,9.05E1,4.780902E-2,6.3712774E-3,2.5542365E4,8.724035E4,5.0316364E-2,8.021963E-3,3.1247204E-2,9.871597E-3,1.35E2,7.623084E-3,2.3605138E-2,1.1488487E4,4.838523E3,1.715342E4,1.4583724E4,1.518821E3,5.322107E3,1.2468085E4,6.80331E3,-2.0643657E3,1.8849873E4,6.8804453E3,1.063003E4,2.2576967E4,1.653406E4,2.2995549E4,1.50738E4,3.1950188E4,1.16400164E5,2.7973025E4,3.8224996E4,1.9714732E4,2.6566525E4,2.5349873E4,1.9185258E4,2.3467488E4,4.1553418E4,9.997214E3,2.9519233E3,1.6652498E4,1.760756E4,3.0104385E4,4.214355E4,3.1381928E4,3.4739652E4,2.6189652E4,3.0686484E4,1.0787529E4,2.0862209E4,4.1070207E4,4.7812996E4,3.0417479E4,3.700873E4,3.1768107E4,4.4986195E4,5.3644293E4,6.4063863E4,3.718872E4,4.9744754E4,7.2108745E3,2.537562E4,7.9725336E4,3.767239E4,7.7911266E4,9.700703E4,4.1198492E4,6.288077E4,3.501948E3,4.254762E4],"split_indices":[0,0,0,0,7,0,0,10,6,16,4,16,6,7,4,4,7,4,10,4,10,7,4,4,6,16,4,7,7,6,16,4,4,0,4,6,10,7,16,4,10,7,16,4,0,6,0,0,0,16,7,0,7,10,0,0,16,6,4,6,0,10,4,0,0,0,0,0,0,0,0,0,0,0,0,0,0,0,0,0,0,0,0,0,0,0,0,0,0,0,0,0,0,0,0,0,0,0,0,0,0,0,0,0,0,0,0,0,0,0,0,0,0,0,0,0,0,0,0,0,0],"split_type":[0,0,0,0,0,0,0,0,0,0,0,0,0,0,0,0,0,0,0,0,0,0,0,0,0,0,0,0,0,0,0,0,0,0,0,0,0,0,0,0,0,0,0,0,0,0,0,0,0,0,0,0,0,0,0,0,0,0,0,0,0,0,0,0,0,0,0,0,0,0,0,0,0,0,0,0,0,0,0,0,0,0,0,0,0,0,0,0,0,0,0,0,0,0,0,0,0,0,0,0,0,0,0,0,0,0,0,0,0,0,0,0,0,0,0,0,0,0,0,0,0],"sum_hessian":[2.2321E4,1.4149E4,8.172E3,1.0199E4,3.95E3,6.146E3,2.026E3,5.936E3,4.263E3,2.373E3,1.577E3,3.307E3,2.839E3,1.612E3,4.14E2,5.238E3,6.98E2,4.1E2,3.853E3,3.4E2,2.033E3,1.17E2,1.46E3,2.2E3,1.107E3,2.441E3,3.98E2,1.088E3,5.24E2,2.58E2,1.56E2,4.799E3,4.39E2,4.73E2,2.25E2,3.3E1,3.77E2,3.68E2,3.485E3,2.5E1,3.15E2,1.257E3,7.76E2,1.12E2,5E0,9E0,1.451E3,4.13E2,1.787E3,9.4E2,1.67E2,1.75E3,6.91E2,2.49E2,1.49E2,2.9E1,1.059E3,4.95E2,2.9E1,1.45E2,1.13E2,1.11E2,4.5E1,4.663E3,1.36E2,1.11E2,3.28E2,7.4E1,3.99E2,2.21E2,4E0,2E0,3.1E1,2.56E2,1.21E2,2.43E2,1.25E2,1.01E2,3.384E3,2.1E1,4E0,2.17E2,9.8E1,4.6E1,1.211E3,4.75E2,3.01E2,1.1E2,2E0,4E0,5E0,7.81E2,6.7E2,8.4E1,3.29E2,9.92E2,7.95E2,2.85E2,6.55E2,6E0,1.61E2,1.217E3,5.33E2,1.37E2,5.54E2,2.16E2,3.3E1,7.57E2,3.02E2,9.9E1,3.96E2,2E0,2.7E1,1.39E2,6E0,3.6E1,7.7E1,1.9E1,9.2E1,2E0,4.3E1],"tree_param":{"num_deleted":"0","num_feature":"19","num_nodes":"121","size_leaf_vector":"0"}},{"base_weights":[2.2454086E5,1.4027772E5,3.7039903E5,1.152832E5,2.0476867E5,3.2492938E5,5.366161E5,1.0007682E5,1.3642886E5,2.3575503E5,1.5802194E5,2.99102E5,3.795652E5,4.9770238E5,6.609722E5,1.0474518E5,6.5505656E4,1.6116992E5,1.29771086E5,1.7915522E5,2.4761889E5,1.8726983E5,1.5395536E5,3.177715E5,2.5820016E5,4.05612E5,3.1937566E5,5.34345E5,4.1864456E5,7.539821E5,6.020396E5,1.0245989E5,1.3573892E5,4.244625E4,1.1213289E5,1.6972662E5,9.751784E4,9.273664E4,1.4054016E5,2.1201339E5,1.4669189E5,2.9957988E5,2.385989E5,1.6544905E5,2.1724978E5,1.5253275E5,1.7260208E5,2.8764403E5,3.3687894E5,3.501094E5,2.4781231E5,3.8863466E5,4.58178E5,3.3263644E5,2.3775877E5,7.95952E5,5.2546444E5,4.30973E5,2.1097803E5,4.090637E5,7.697558E5,5.510639E5,7.197527E5,1.5763316E5,1.0117656E5,1.6314125E5,1.3233884E5,5.1081758E4,2.218187E4,1.2680139E5,1.0598718E5,1.6575719E5,2.7211556E5,6.1593395E4,2.1576027E5,1.208789E5,8.539762E4,1.5413186E5,1.17546984E5,1.3710656E5,2.2944734E5,1.2837304E5,2.1371906E5,2.7746716E5,7.093799E5,2.3084472E5,2.5964248E5,1.1473908E5,1.7384948E5,5.339439E4,1.5264428E5,3.4397056E5,2.8318622E5,3.009699E5,3.5470384E5,2.6820903E5,3.6262406E5,2.5971761E5,1.928133E5,3.6479706E5,4.228342E5,3.959149E5,4.9554806E5,4.2193534E5,3.2319066E5,3.212581E5,8.201108E5,4.8883828E5,5.832918E5,4.179939E5,6.719703E5,1.26671234E5,2.4141044E5,5.0801706E5,1.5836766E5,7.76774E5,1.6927833E5,5.607892E5,-2.9203344E4,8.0373506E5,2.9641978E5],"categories":[],"categories_nodes":[],"categories_segments":[],"categories_sizes":[],"default_left":[1,1,1,1,1,1,1,1,1,1,1,1,1,1,1,1,1,1,1,1,1,1,1,1,1,1,1,1,1,1,1,1,1,1,1,1,1,1,1,1,1,1,1,1,0,1,0,1,1,1,1,1,1,1,0,1,1,1,1,1,1,1,1,0,0,0,0,0,0,0,0,0,0,0,0,0,0,0,0,0,0,0,0,0,0,0,0,0,0,0,0,0,0,0,0,0,0,0,0,0,0,0,0,0,0,0,0,0,0,0,0,0,0,0,0,0,0,0,0,0,0],"id":6,"left_children":[1,3,5,7,9,11,13,15,17,19,21,23,25,27,29,31,33,35,37,39,41,43,45,47,49,51,53,55,57,59,61,63,65,67,69,71,73,75,77,79,81,83,85,87,-1,89,-1,91,93,95,97,99,101,103,-1,105,107,109,111,113,115,117,119,-1,-1,-1,-1,-1,-1,-1,-1,-1,-1,-1,-1,-1,-1,-1,-1,-1,-1,-1,-1,-1,-1,-1,-1,-1,-1,-1,-1,-1,-1,-1,-1,-1,-1,-1,-1,-1,-1,-1,-1,-1,-1,-1,-1,-1,-1,-1,-1,-1,-1,-1,-1,-1,-1,-1,-1,-1,-1],"loss_changes":[2.7429587E14,2.2785087E13,6.1595737E13,3.2661465E12,5.6858153E12,8.945813E12,8.1589615E12,9.513143E11,6.814486E11,1.5497702E12,1.5885088E11,3.2503843E12,3.0952957E12,3.6581377E12,1.8208145E12,3.564613E11,7.5755474E11,4.736376E11,1.329024E12,4.1157552E11,8.4714036E11,8.704334E10,1.0571743E10,1.6254438E12,1.2240908E12,1.0998807E12,5.984349E11,1.7005386E12,1.0074047E12,5.39312E11,1.1574937E12,3.291564E11,1.1578376E10,8.216366E10,7.655391E9,2.7678212E11,4.4972022E11,1.468515E11,7.959866E11,2.3494813E11,2.328709E11,2.3948448E12,2.1338102E11,2.8188869E10,0E0,6.234833E9,0E0,1.958656E11,1.0613938E12,4.315939E10,7.5989044E11,7.3353344E11,6.0422305E11,3.157472E11,0E0,5.7638126E10,1.5892721E12,9.828009E11,3.6127244E10,1.4281146E11,4.9643782E11,1.06038716E12,2.4281958E12,0E0,0E0,0E0,0E0,0E0,0E0,0E0,0E0,0E0,0E0,0E0,0E0,0E0,0E0,0E0,0E0,0E0,0E0,0E0,0E0,0E0,0E0,0E0,0E0,0E0,0E0,0E0,0E0,0E0,0E0,0E0,0E0,0E0,0E0,0E0,0E0,0E0,0E0,0E0,0E0,0E0,0E0,0E0,0E0,0E0,0E0,0E0,0E0,0E0,0E0,0E0,0E0,0E0,0E0,0E0,0E0,0E0,0E0],"parents":[2147483647,0,0,1,1,2,2,3,3,4,4,5,5,6,6,7,7,8,8,9,9,10,10,11,11,12,12,13,13,14,14,15,15,16,16,17,17,18,18,19,19,20,20,21,21,22,22,23,23,24,24,25,25,26,26,27,27,28,28,29,29,30,30,31,31,32,32,33,33,34,34,35,35,36,36,37,37,38,38,39,39,40,40,41,41,42,42,43,43,45,45,47,47,48,48,49,49,50,50,51,51,52,52,53,53,55,55,56,56,57,57,58,58,59,59,60,60,61,61,62,62],"right_children":[2,4,6,8,10,12,14,16,18,20,22,24,26,28,30,32,34,36,38,40,42,44,46,48,50,52,54,56,58,60,62,64,66,68,70,72,74,76,78,80,82,84,86,88,-1,90,-1,92,94,96,98,100,102,104,-1,106,108,110,112,114,116,118,120,-1,-1,-1,-1,-1,-1,-1,-1,-1,-1,-1,-1,-1,-1,-1,-1,-1,-1,-1,-1,-1,-1,-1,-1,-1,-1,-1,-1,-1,-1,-1,-1,-1,-1,-1,-1,-1,-1,-1,-1,-1,-1,-1,-1,-1,-1,-1,-1,-1,-1,-1,-1,-1,-1,-1,-1,-1,-1],"split_conditions":[6.85E1,5.75E1,9.95E1,4.95E1,5.276581E-2,8.55E1,1.235E2,1.537267E-1,4.91286E-2,2.9267254E-3,9.528913E-2,4.626146E-2,5.94863E-2,3.775093E-2,1.8718289E0,2.8739594E-2,1.5671645E-1,4.0127137E-3,1.01237535E-1,3.6225602E-2,9.973169E-3,1.3112647E-2,6.55E1,7.55E1,1.1658948E-3,4.4060264E-2,1.5502223E-1,4.293006E-3,9.980337E-2,1.362287E-3,1.0739047E-2,3.2926016E-2,2.8975366E-2,1.5753362E-1,1.5837505E-1,3.7160139E-3,3.4806326E-2,4.531218E-2,1.1558668E-1,5.85E1,2.6494112E-2,2.33867E-3,6.55E1,3.8876212E-3,2.1724979E4,4.4584088E-2,1.7260209E4,4.9736034E-3,3.509394E-2,4.798036E-2,4.2957775E-2,9.25E1,2.0302762E-3,1.2244311E-3,2.3775877E4,9.2777936E-4,4.4093486E-2,9.3395695E-2,1.075E2,4.9525175E-2,3.815157E-2,1.03627555E-2,1.4012042E-2,1.5763315E4,1.0117656E4,1.6314125E4,1.3233885E4,5.108176E3,2.218187E3,1.268014E4,1.0598718E4,1.6575719E4,2.7211557E4,6.1593394E3,2.1576027E4,1.208789E4,8.539762E3,1.5413187E4,1.1754698E4,1.3710656E4,2.2944734E4,1.2837304E4,2.1371906E4,2.7746717E4,7.093799E4,2.3084473E4,2.5964248E4,1.1473908E4,1.738495E4,5.339439E3,1.5264429E4,3.439706E4,2.8318623E4,3.009699E4,3.5470387E4,2.6820904E4,3.6262406E4,2.5971762E4,1.928133E4,3.6479707E4,4.2283418E4,3.9591492E4,4.955481E4,4.2193535E4,3.2319066E4,3.212581E4,8.2011086E4,4.888383E4,5.8329184E4,4.179939E4,6.719703E4,1.2667124E4,2.4141045E4,5.0801707E4,1.5836766E4,7.76774E4,1.6927834E4,5.6078918E4,-2.9203345E3,8.037351E4,2.9641979E4],"split_indices":[0,0,0,0,7,0,0,16,7,5,7,7,16,7,14,8,7,8,7,7,7,8,0,0,8,17,5,7,7,8,5,16,8,16,7,8,7,17,16,0,17,8,0,8,0,5,0,7,16,7,5,0,8,8,0,8,17,7,0,17,7,5,8,0,0,0,0,0,0,0,0,0,0,0,0,0,0,0,0,0,0,0,0,0,0,0,0,0,0,0,0,0,0,0,0,0,0,0,0,0,0,0,0,0,0,0,0,0,0,0,0,0,0,0,0,0,0,0,0,0,0],"split_type":[0,0,0,0,0,0,0,0,0,0,0,0,0,0,0,0,0,0,0,0,0,0,0,0,0,0,0,0,0,0,0,0,0,0,0,0,0,0,0,0,0,0,0,0,0,0,0,0,0,0,0,0,0,0,0,0,0,0,0,0,0,0,0,0,0,0,0,0,0,0,0,0,0,0,0,0,0,0,0,0,0,0,0,0,0,0,0,0,0,0,0,0,0,0,0,0,0,0,0,0,0,0,0,0,0,0,0,0,0,0,0,0,0,0,0,0,0,0,0,0,0],"sum_hessian":[2.2321E4,1.4149E4,8.172E3,1.0199E4,3.95E3,6.419E3,1.753E3,5.936E3,4.263E3,2.373E3,1.577E3,4.363E3,2.056E3,1.339E3,4.14E2,5.228E3,7.08E2,8.99E2,3.364E3,4.14E2,1.959E3,1.87E2,1.39E3,2.991E3,1.372E3,1.431E3,6.25E2,9.11E2,4.28E2,1.56E2,2.58E2,4.873E3,3.55E2,4.75E2,2.33E2,7.91E2,1.08E2,7.6E2,2.604E3,2.03E2,2.11E2,2.85E2,1.674E3,1.12E2,7.5E1,1.3E3,9E1,1.167E3,1.824E3,1.36E2,1.236E3,1.088E3,3.43E2,5.35E2,9E1,2.7E1,8.84E2,4.03E2,2.5E1,8E0,1.48E2,1.84E2,7.4E1,1.08E2,4.765E3,3.4E1,3.21E2,3.32E2,1.43E2,6.3E1,1.7E2,7.64E2,2.7E1,8.4E1,2.4E1,1.54E2,6.06E2,1.633E3,9.71E2,4E1,1.63E2,1.68E2,4.3E1,2.72E2,1.3E1,1.232E3,4.42E2,1.8E1,9.4E1,2E0,1.298E3,8E1,1.087E3,6.11E2,1.213E3,2.1E1,1.15E2,1.013E3,2.23E2,6.48E2,4.4E2,1.33E2,2.1E2,4.7E1,4.88E2,2E0,2.5E1,5.47E2,3.37E2,3.85E2,1.8E1,8E0,1.7E1,5E0,3E0,1.46E2,2E0,1.81E2,3E0,6.1E1,1.3E1],"tree_param":{"num_deleted":"0","num_feature":"19","num_nodes":"121","size_leaf_vector":"0"}},{"base_weights":[2.0216323E5,2.83284E5,1.2191352E5,3.699186E5,2.650555E5,1.9182919E5,1.1044642E5,2.567258E5,4.0343678E5,2.7983625E5,2.1979273E5,1.6942588E5,6.391302E5,9.845518E4,1.27508516E5,2.0430753E5,3.8698203E5,2.8733462E5,4.459746E5,2.6283538E5,3.3652944E5,1.7769361E5,2.6912884E5,1.19277695E5,2.2684384E5,8.9217744E5,5.99961E5,1.0334183E5,6.74234E4,1.4035516E5,1.0865252E5,2.4708325E5,1.3888198E5,3.942934E5,-4.421499E4,3.3122222E5,1.4826152E5,6.1962925E5,4.3466356E5,2.9721547E5,2.4132402E5,3.0715416E5,4.8302125E5,2.1259103E5,1.265649E5,1.573498E5,2.9638316E5,2.1273116E5,7.613763E4,2.151988E5,2.6366206E5,-2.6901791E4,6.1936444E5,9.974611E4,1.3863792E5,7.775593E4,5.6561355E4,1.5559084E5,1.365786E5,5.701141E4,1.4107898E5,3.1163716E5,2.25641E5,1.19274414E5,2.5989172E5,4.1196588E5,2.8799662E5,8.303689E4,3.4025634E5,1.764937E5,7.838546E4,3.2380038E5,7.1149306E5,4.094778E5,5.0842456E5,5.1498678E5,2.877356E5,4.5881853E5,2.3511216E5,2.920828E5,5.1122372E5,5.2242634E5,3.2010475E5,2.0692198E5,5.622681E5,-5.8840645E3,1.4231755E5,7.655704E4,2.4389797E5,2.8237766E5,3.1209694E5,2.2359595E5,1.7216048E5,6.9329414E4,3.7729725E5,2.929066E5,2.0519889E5,1.00177555E5,2.703131E5,6.271406E5,2.4701792E5,9.39064E4,1.1700409E5,7.075426E4,9.392586E4,3.7320535E4,7.78396E4,1.3553739E5,1.7651048E5,3.0682598E4,7.788037E4,1.0387546E5,1.4344752E5],"categories":[],"categories_nodes":[],"categories_segments":[],"categories_sizes":[],"default_left":[1,1,1,1,1,1,1,1,1,1,1,1,1,1,1,1,1,1,1,1,1,1,1,1,1,0,1,1,1,1,1,1,1,1,0,1,1,1,1,1,1,1,1,1,1,1,1,1,1,1,1,0,1,1,0,1,1,0,1,1,1,0,0,0,0,0,0,0,0,0,0,0,0,0,0,0,0,0,0,0,0,0,0,0,0,0,0,0,0,0,0,0,0,0,0,0,0,0,0,0,0,0,0,0,0,0,0,0,0,0,0,0,0],"id":7,"left_children":[1,3,5,7,9,11,13,15,17,19,21,23,25,27,29,31,33,35,37,39,41,43,45,47,49,-1,51,53,55,57,59,61,63,65,-1,67,69,71,73,75,77,79,81,83,85,87,89,91,93,95,97,-1,99,101,-1,103,105,-1,107,109,111,-1,-1,-1,-1,-1,-1,-1,-1,-1,-1,-1,-1,-1,-1,-1,-1,-1,-1,-1,-1,-1,-1,-1,-1,-1,-1,-1,-1,-1,-1,-1,-1,-1,-1,-1,-1,-1,-1,-1,-1,-1,-1,-1,-1,-1,-1,-1,-1,-1,-1,-1,-1],"loss_changes":[1.4527982E14,1.7431259E13,8.976616E12,7.207492E12,6.0761037E12,1.5724941E13,1.9605687E12,2.9456576E12,7.2058814E12,6.5735817E12,4.652448E12,4.3093286E12,2.0810249E11,8.525342E11,9.481182E11,8.5564745E11,4.1466777E11,2.3984268E12,1.8618348E12,3.864229E12,6.6980854E12,2.1570299E12,3.1216862E12,3.233262E12,2.438107E11,0E0,8.4376604E11,6.074191E11,8.246998E10,1.14655494E11,2.698009E12,1.9405996E11,2.7270814E11,1.1429059E11,0E0,6.533593E11,1.7949537E11,1.5088799E12,1.6904052E12,4.0715283E12,4.32218E12,3.9350876E12,1.5275781E12,1.322831E12,1.0419616E12,1.4217763E12,9.563013E10,7.346743E10,1.107691E12,3.5796078E11,1.512445E11,0E0,3.618426E10,4.3708842E11,0E0,3.796186E10,1.5308056E11,0E0,5.511735E10,3.4101985E11,7.251532E10,0E0,0E0,0E0,0E0,0E0,0E0,0E0,0E0,0E0,0E0,0E0,0E0,0E0,0E0,0E0,0E0,0E0,0E0,0E0,0E0,0E0,0E0,0E0,0E0,0E0,0E0,0E0,0E0,0E0,0E0,0E0,0E0,0E0,0E0,0E0,0E0,0E0,0E0,0E0,0E0,0E0,0E0,0E0,0E0,0E0,0E0,0E0,0E0,0E0,0E0,0E0,0E0],"parents":[2147483647,0,0,1,1,2,2,3,3,4,4,5,5,6,6,7,7,8,8,9,9,10,10,11,11,12,12,13,13,14,14,15,15,16,16,17,17,18,18,19,19,20,20,21,21,22,22,23,23,24,24,26,26,27,27,28,28,29,29,30,30,31,31,32,32,33,33,35,35,36,36,37,37,38,38,39,39,40,40,41,41,42,42,43,43,44,44,45,45,46,46,47,47,48,48,49,49,50,50,52,52,53,53,55,55,56,56,58,58,59,59,60,60],"right_children":[2,4,6,8,10,12,14,16,18,20,22,24,26,28,30,32,34,36,38,40,42,44,46,48,50,-1,52,54,56,58,60,62,64,66,-1,68,70,72,74,76,78,80,82,84,86,88,90,92,94,96,98,-1,100,102,-1,104,106,-1,108,110,112,-1,-1,-1,-1,-1,-1,-1,-1,-1,-1,-1,-1,-1,-1,-1,-1,-1,-1,-1,-1,-1,-1,-1,-1,-1,-1,-1,-1,-1,-1,-1,-1,-1,-1,-1,-1,-1,-1,-1,-1,-1,-1,-1,-1,-1,-1,-1,-1,-1,-1,-1,-1],"split_conditions":[6.699656E-2,2.0750038E-2,2.2947254E-2,1.427847E-3,4.3018863E-2,6.905109E-2,4.509031E-2,1.7760858E-2,8.7152596E-4,1.920901E-3,4.3619797E-2,4.988508E-3,6.906105E-2,7.1314566E-2,1.7915893E-1,5.2115664E-2,5.609104E-2,1.0399032E-2,1.5274077E-3,4.520295E-2,4.1838583E-2,3.3427387E-2,2.5147097E-3,3.8638256E-2,2.0811658E-2,8.921774E4,6.906437E-2,2.8687492E-2,4.4079583E-2,2.7329445E-2,1.5820503E-1,5.1601548E-2,5.3535625E-2,5.5272475E-2,-4.421499E3,6.79543E-4,2.360904E-3,1.5916608E-3,1.0586617E-2,4.4817955E-4,2.6847264E-3,3.9830594E-3,4.2372227E-2,8.574275E-3,7.1632857E-3,6.682216E-3,4.56822E-3,4.854811E-3,2.351017E-2,1.8025154E-2,6.769329E-2,-2.6901792E3,9.987116E-2,1.11310065E-1,1.3863792E4,7.943633E-2,7.2700635E-2,1.5559085E4,1.6611092E-1,1.567615E-1,1.5845197E-1,3.1163717E4,2.25641E4,1.1927441E4,2.5989172E4,4.119659E4,2.8799662E4,8.303689E3,3.4025637E4,1.7649371E4,7.8385464E3,3.2380037E4,7.1149305E4,4.094778E4,5.0842457E4,5.149868E4,2.877356E4,4.5881855E4,2.3511217E4,2.9208281E4,5.112237E4,5.2242637E4,3.2010475E4,2.06922E4,5.6226812E4,-5.8840643E2,1.4231755E4,7.655704E3,2.4389797E4,2.8237766E4,3.1209693E4,2.2359596E4,1.7216049E4,6.9329414E3,3.7729727E4,2.929066E4,2.0519889E4,1.0017756E4,2.703131E4,6.2714062E4,2.4701793E4,9.39064E3,1.1700409E4,7.075426E3,9.392586E3,3.7320535E3,7.7839604E3,1.3553739E4,1.7651049E4,3.0682598E3,7.7880366E3,1.0387546E4,1.4344752E4],"split_indices":[16,13,8,8,13,9,9,13,9,9,16,5,9,2,2,16,16,2,8,16,13,16,8,13,8,0,9,8,9,8,16,16,16,16,0,5,8,9,2,8,2,9,13,15,5,5,8,5,2,2,13,0,2,16,0,13,2,0,2,16,16,0,0,0,0,0,0,0,0,0,0,0,0,0,0,0,0,0,0,0,0,0,0,0,0,0,0,0,0,0,0,0,0,0,0,0,0,0,0,0,0,0,0,0,0,0,0,0,0,0,0,0,0],"split_type":[0,0,0,0,0,0,0,0,0,0,0,0,0,0,0,0,0,0,0,0,0,0,0,0,0,0,0,0,0,0,0,0,0,0,0,0,0,0,0,0,0,0,0,0,0,0,0,0,0,0,0,0,0,0,0,0,0,0,0,0,0,0,0,0,0,0,0,0,0,0,0,0,0,0,0,0,0,0,0,0,0,0,0,0,0,0,0,0,0,0,0,0,0,0,0,0,0,0,0,0,0,0,0,0,0,0,0,0,0,0,0,0,0],"sum_hessian":[2.2321E4,1.1099E4,1.1222E4,1.926E3,9.173E3,1.579E3,9.643E3,4.42E2,1.484E3,6.911E3,2.262E3,1.505E3,7.4E1,5.667E3,3.976E3,3.17E2,1.25E2,4E2,1.084E3,5.321E3,1.59E3,1.223E3,1.039E3,8.05E2,7E2,7E0,6.7E1,4.894E3,7.73E2,2.361E3,1.615E3,1.9E2,1.27E2,1.23E2,2E0,3.03E2,9.7E1,6.3E1,1.021E3,2.043E3,3.278E3,1.327E3,2.63E2,7.25E2,4.98E2,2.05E2,8.34E2,2.53E2,5.52E2,5.37E2,1.63E2,2E0,6.5E1,4.445E3,4.49E2,3.93E2,3.8E2,4.61E2,1.9E3,6.24E2,9.91E2,4.4E1,1.46E2,1.11E2,1.6E1,1.03E2,2E1,1.1E1,2.92E2,6.8E1,2.9E1,1.6E1,4.7E1,7.66E2,2.55E2,8.3E1,1.96E3,8.9E1,3.189E3,1.238E3,8.9E1,2.1E2,5.3E1,7.15E2,1E1,5.3E1,4.45E2,1.07E2,9.8E1,4.51E2,3.83E2,1.96E2,5.7E1,5.41E2,1.1E1,5.8E1,4.79E2,7E0,1.56E2,6.3E1,2E0,3.326E3,1.119E3,2.78E2,1.15E2,2.01E2,1.79E2,1.856E3,4.4E1,2.77E2,3.47E2,6.2E1,9.29E2],"tree_param":{"num_deleted":"0","num_feature":"19","num_nodes":"113","size_leaf_vector":"0"}},{"base_weights":[1.8200994E5,2.5402392E5,1.0773183E5,3.090441E5,2.2598556E5,1.671839E5,9.941685E4,3.2310606E5,1.7203911E5,2.3912236E5,1.9006006E5,1.4251828E5,5.721555E5,9.528846E4,1.30038164E5,3.0228688E5,3.7245975E5,1.4021038E5,1.9648277E5,2.2249588E5,2.6851138E5,2.1435738E5,1.2819675E5,2.0650766E5,7.830483E4,6.006345E5,4.3631003E5,9.942914E4,3.7709742E4,1.3264716E5,1.1524648E5,3.7356297E5,2.8108756E5,6.491909E5,3.6402838E5,1.4316575E5,-6.1190953E4,1.8330714E5,3.1235016E5,2.3500888E5,1.5458934E5,3.139865E5,2.1912794E5,2.8560347E5,2.0282505E5,2.461426E5,1.0931421E5,1.4563392E5,2.1259583E5,4.9057883E4,1.2700747E5,6.253825E5,3.88159E5,2.499603E5,5.152317E5,9.2845945E4,1.2323571E5,4.7580832E4,1.5592936E4,1.2870111E5,1.4232788E5,5.6258293E4,1.1732008E5,3.9364188E5,2.3718783E5,3.2420294E5,2.459626E5,4.5190928E5,3.3838503E5,1.333127E5,1.8205808E5,1.9633748E5,1.5912212E5,3.3939522E5,1.2608236E5,2.1687306E5,2.8263022E5,2.6915028E5,1.3159016E5,4.7835297E5,3.0167438E5,5.4193055E4,2.3315519E5,3.4450594E5,2.3380778E5,1.1723331E5,2.0426533E5,2.8190938E5,1.7220516E5,4.7182324E4,1.30233734E5,1.6671572E5,1.1291183E5,2.1539384E5,1.5239222E5,4.313625E4,7.828162E4,3.6396444E5,1.1718303E5,2.962547E5,6.392051E5,3.4470856E5,9.272194E4,9.678199E4,5.7786465E4,1.2226213E5,1.5743078E5,2.627468E4,9.986816E4,7.8170516E4,9.354688E3,1.3133914E5,1.0923343E5,1.6040705E5,1.3270495E5,7.924866E4,-8.475198E3,9.28387E4,1.2163561E5],"categories":[],"categories_nodes":[],"categories_segments":[],"categories_sizes":[],"default_left":[1,1,1,1,1,1,1,1,1,1,1,1,1,1,1,1,1,1,1,1,1,1,1,1,1,1,1,1,1,1,1,1,1,0,1,1,0,1,1,1,1,1,1,1,1,1,1,1,1,1,1,1,0,1,0,1,1,1,1,1,1,1,1,0,0,0,0,0,0,0,0,0,0,0,0,0,0,0,0,0,0,0,0,0,0,0,0,0,0,0,0,0,0,0,0,0,0,0,0,0,0,0,0,0,0,0,0,0,0,0,0,0,0,0,0,0,0,0,0],"id":8,"left_children":[1,3,5,7,9,11,13,15,17,19,21,23,25,27,29,31,33,35,37,39,41,43,45,47,49,51,53,55,57,59,61,63,65,-1,67,69,-1,71,73,75,77,79,81,83,85,87,89,91,93,95,97,99,-1,101,-1,103,105,107,109,111,113,115,117,-1,-1,-1,-1,-1,-1,-1,-1,-1,-1,-1,-1,-1,-1,-1,-1,-1,-1,-1,-1,-1,-1,-1,-1,-1,-1,-1,-1,-1,-1,-1,-1,-1,-1,-1,-1,-1,-1,-1,-1,-1,-1,-1,-1,-1,-1,-1,-1,-1,-1,-1,-1,-1,-1,-1,-1],"loss_changes":[1.19374455E14,1.7413274E13,5.4162054E12,7.309665E12,3.499291E12,1.3373471E13,1.2067684E12,3.4487245E12,2.5097981E11,2.6258356E12,3.002786E12,5.206339E12,3.583194E10,2.0232651E12,2.882116E10,3.5863984E12,2.1528859E12,1.03399555E11,2.4806896E11,2.9512633E12,4.3799607E12,1.1301552E12,1.2447772E12,2.0474914E11,8.9969E11,7.800986E10,1.2123216E11,1.2315315E12,1.2413541E11,1.8546164E10,1.5294792E10,1.4318515E12,2.7779714E12,0E0,2.0916239E12,3.5892756E10,0E0,2.6113737E10,5.2923204E10,2.5011474E12,1.4137279E12,1.9380872E12,2.1922075E12,5.265802E11,1.2990179E11,1.5772523E11,6.359409E11,2.3256105E10,6.420221E10,6.5671004E10,5.1140624E11,5.175142E10,0E0,7.232438E10,0E0,8.523287E11,3.7845205E10,4.3742252E11,6.875537E10,2.139829E10,2.5686442E10,1.257762E10,6.879445E9,0E0,0E0,0E0,0E0,0E0,0E0,0E0,0E0,0E0,0E0,0E0,0E0,0E0,0E0,0E0,0E0,0E0,0E0,0E0,0E0,0E0,0E0,0E0,0E0,0E0,0E0,0E0,0E0,0E0,0E0,0E0,0E0,0E0,0E0,0E0,0E0,0E0,0E0,0E0,0E0,0E0,0E0,0E0,0E0,0E0,0E0,0E0,0E0,0E0,0E0,0E0,0E0,0E0,0E0,0E0,0E0],"parents":[2147483647,0,0,1,1,2,2,3,3,4,4,5,5,6,6,7,7,8,8,9,9,10,10,11,11,12,12,13,13,14,14,15,15,16,16,17,17,18,18,19,19,20,20,21,21,22,22,23,23,24,24,25,25,26,26,27,27,28,28,29,29,30,30,31,31,32,32,34,34,35,35,37,37,38,38,39,39,40,40,41,41,42,42,43,43,44,44,45,45,46,46,47,47,48,48,49,49,50,50,51,51,53,53,55,55,56,56,57,57,58,58,59,59,60,60,61,61,62,62],"right_children":[2,4,6,8,10,12,14,16,18,20,22,24,26,28,30,32,34,36,38,40,42,44,46,48,50,52,54,56,58,60,62,64,66,-1,68,70,-1,72,74,76,78,80,82,84,86,88,90,92,94,96,98,100,-1,102,-1,104,106,108,110,112,114,116,118,-1,-1,-1,-1,-1,-1,-1,-1,-1,-1,-1,-1,-1,-1,-1,-1,-1,-1,-1,-1,-1,-1,-1,-1,-1,-1,-1,-1,-1,-1,-1,-1,-1,-1,-1,-1,-1,-1,-1,-1,-1,-1,-1,-1,-1,-1,-1,-1,-1,-1,-1,-1,-1,-1,-1,-1],"split_conditions":[5.280897E-2,2.148351E-2,9.612137E-2,3.8515776E-2,2.4461638E-2,9.866278E-2,1.5671712E-1,9.825775E-3,5.234301E-3,2.0504368E-2,2.582357E-2,2.8873116E-2,9.983954E-2,1.5449849E-1,6.6990554E-2,1.3963713E-3,2.885638E-3,5.2081635E-3,5.530778E-3,1.9244984E-2,6.917595E-3,2.2381009E-3,1.396131E-3,1.8664574E-2,4.1235327E-3,7.3567614E-2,9.985219E-2,7.275736E-2,1.5305772E-1,1.610477E-1,1.6336319E-1,3.0548584E-2,7.1594464E-3,6.491909E4,7.914647E-3,4.2670928E-2,-6.119095E3,4.1943867E-2,7.174102E-3,1.2794295E-2,3.0881286E-2,3.7014084E-3,7.1632857E-3,1.599583E-2,2.2696895E-3,3.7329264E-2,9.023709E-3,2.8063139E-2,5.2162185E-2,5.477181E-2,2.989212E-2,9.93045E-2,3.8815902E4,9.984797E-2,5.1523168E4,7.180827E-2,1.6611092E-1,1.5562958E-1,1.5791589E-1,1.6043004E-1,6.4556E-2,1.8806022E-1,1.8439415E-1,3.9364188E4,2.3718783E4,3.2420295E4,2.459626E4,4.519093E4,3.3838504E4,1.33312705E4,1.8205809E4,1.9633748E4,1.5912213E4,3.3939523E4,1.2608236E4,2.1687307E4,2.8263021E4,2.691503E4,1.3159016E4,4.7835297E4,3.0167438E4,5.4193057E3,2.331552E4,3.4450594E4,2.338078E4,1.1723331E4,2.0426533E4,2.8190938E4,1.7220516E4,4.7182324E3,1.3023374E4,1.6671572E4,1.1291183E4,2.1539385E4,1.5239222E4,4.313625E3,7.8281616E3,3.6396445E4,1.1718304E4,2.9625469E4,6.392051E4,3.4470855E4,9.272194E3,9.678199E3,5.7786465E3,1.2226214E4,1.5743078E4,2.627468E3,9.986815E3,7.817052E3,9.354689E2,1.3133914E4,1.0923343E4,1.6040705E4,1.3270495E4,7.9248657E3,-8.4751984E2,9.28387E3,1.2163562E4],"split_indices":[7,4,7,7,6,2,7,6,3,2,7,4,2,6,4,12,7,3,6,2,5,12,3,2,12,3,2,2,3,7,7,7,2,0,4,7,0,7,6,6,4,5,5,7,12,4,5,4,2,7,4,2,0,2,0,2,2,7,6,7,4,2,2,0,0,0,0,0,0,0,0,0,0,0,0,0,0,0,0,0,0,0,0,0,0,0,0,0,0,0,0,0,0,0,0,0,0,0,0,0,0,0,0,0,0,0,0,0,0,0,0,0,0,0,0,0,0,0,0],"split_type":[0,0,0,0,0,0,0,0,0,0,0,0,0,0,0,0,0,0,0,0,0,0,0,0,0,0,0,0,0,0,0,0,0,0,0,0,0,0,0,0,0,0,0,0,0,0,0,0,0,0,0,0,0,0,0,0,0,0,0,0,0,0,0,0,0,0,0,0,0,0,0,0,0,0,0,0,0,0,0,0,0,0,0,0,0,0,0,0,0,0,0,0,0,0,0,0,0,0,0,0,0,0,0,0,0,0,0,0,0,0,0,0,0,0,0,0,0,0,0],"sum_hessian":[2.2321E4,1.1332E4,1.0989E4,3.822E3,7.51E3,1.346E3,9.643E3,3.465E3,3.57E2,5.495E3,2.015E3,1.27E3,7.6E1,8.501E3,1.142E3,2.442E3,1.023E3,1.58E2,1.99E2,3.515E3,1.98E3,1.445E3,5.7E2,6.35E2,6.35E2,6E1,1.6E1,7.93E3,5.71E2,9.64E2,1.78E2,5.56E2,1.886E3,2.8E1,9.95E2,1.56E2,2E0,1.81E2,1.8E1,2.966E3,5.49E2,1.028E3,9.52E2,1.98E2,1.247E3,7.7E1,4.93E2,6E1,5.75E2,3.98E2,2.37E2,5.2E1,8E0,6E0,1E1,6.216E3,1.714E3,3.94E2,1.77E2,6.95E2,2.69E2,7E0,1.71E2,4.83E2,7.3E1,8.43E2,1.043E3,2.21E2,7.74E2,1.28E2,2.8E1,1.13E2,6.8E1,1.5E1,3E0,2.152E3,8.14E2,9E1,4.59E2,6.9E1,9.59E2,7.5E1,8.77E2,9E1,1.08E2,2.2E1,1.225E3,5E1,2.7E1,1.25E2,3.68E2,3.4E1,2.6E1,5.47E2,2.8E1,3.33E2,6.5E1,8E0,2.29E2,3E0,4.9E1,3E0,3E0,5.587E3,6.29E2,1.671E3,4.3E1,2.81E2,1.13E2,1.5E1,1.62E2,6.07E2,8.8E1,8.8E1,1.81E2,5E0,2E0,2.9E1,1.42E2],"tree_param":{"num_deleted":"0","num_feature":"19","num_nodes":"119","size_leaf_vector":"0"}},{"base_weights":[1.6386364E5,2.2808195E5,9.6113125E4,3.0228434E5,2.1351505E5,1.4832439E5,8.948673E4,1.9822939E5,3.3221494E5,6.259987E5,2.1206736E5,1.2368232E5,5.2353472E5,8.115421E4,1.019171E5,2.4522673E5,8.9582516E4,5.1944606E5,3.2309894E5,1.2726044E5,6.540702E5,2.2278942E5,1.76998E5,6.3031664E4,1.8014266E5,7.581815E5,4.882302E5,8.462522E4,5.320541E4,1.1173102E5,8.825641E4,2.9972466E5,1.8313814E5,1.0594853E4,1.0147712E5,5.5426825E5,1.4676331E5,2.740047E5,3.6368216E5,7.070438E5,4.460186E5,2.4436106E5,1.9591536E5,1.3972212E5,2.1975622E5,4.8834973E4,1.518656E5,1.5540956E5,2.0502064E5,-6.7722E4,5.061033E5,7.9454945E4,1.1448854E5,2.3506129E4,6.176314E4,1.11092336E5,1.4890339E5,3.4496223E4,1.17855805E5,2.647924E5,3.4785222E5,8.490714E4,1.9252472E5,1.340432E5,-1.3213893E4,1.3594236E5,7.802859E4,5.791971E5,1.6421108E5,2.0923512E5,-6.2775E3,2.2086672E5,3.471633E5,3.195479E5,4.2692122E5,2.3529156E5,3.656673E5,2.4046594E5,1.6453934E5,1.8505203E5,1.0663113E5,1.212615E5,2.4271912E5,4.5563934E4,2.3613073E5,1.7423439E5,1.1175898E5,1.947232E5,1.4465083E5,2.1441908E5,1.6045244E5,5.1272212E5,1.9620125E5,7.4502125E4,8.722783E4,6.664805E4,1.27939664E5,2.4295908E4,1.5041649E4,6.041628E4,1.11163914E5,1.1599898E5,1.09310266E5,4.349395E4,1.4082813E4,1.3064181E5,1.14712625E5],"categories":[],"categories_nodes":[],"categories_segments":[],"categories_sizes":[],"default_left":[1,1,1,1,1,1,1,1,1,1,1,1,1,1,1,1,1,1,1,0,1,1,1,1,1,0,1,1,1,1,1,1,1,1,1,1,1,1,1,0,0,1,1,1,1,1,1,1,1,0,1,1,1,1,1,1,0,1,1,0,0,0,0,0,0,0,0,0,0,0,0,0,0,0,0,0,0,0,0,0,0,0,0,0,0,0,0,0,0,0,0,0,0,0,0,0,0,0,0,0,0,0,0,0,0,0,0],"id":9,"left_children":[1,3,5,7,9,11,13,15,17,19,21,23,25,27,29,31,33,35,37,-1,39,41,43,45,47,-1,49,51,53,55,57,59,61,63,65,67,69,71,73,-1,-1,75,77,79,81,83,85,87,89,-1,91,93,95,97,99,101,-1,103,105,-1,-1,-1,-1,-1,-1,-1,-1,-1,-1,-1,-1,-1,-1,-1,-1,-1,-1,-1,-1,-1,-1,-1,-1,-1,-1,-1,-1,-1,-1,-1,-1,-1,-1,-1,-1,-1,-1,-1,-1,-1,-1,-1,-1,-1,-1,-1,-1],"loss_changes":[9.7097265E13,1.2321523E13,3.7453709E12,5.783039E12,5.5890946E12,1.1233814E13,9.9051006E11,2.1328099E12,2.3189803E12,3.7877396E11,3.5515353E12,3.9198078E12,2.5114024E11,5.560221E11,5.0843773E11,9.3991836E11,1.2012382E11,7.751787E11,2.6737681E12,0E0,2.6303529E10,4.1898413E12,3.5411125E12,6.925205E11,3.3363172E11,0E0,7.099625E11,7.842174E11,1.6146366E11,3.677985E10,2.5753813E12,1.684768E11,1.1274027E11,5.4675935E10,7.990647E10,4.8831136E11,6.823864E10,2.3879976E12,1.9819596E12,0E0,0E0,4.370817E12,4.517324E12,1.7802828E12,2.327285E12,2.8331383E11,4.8710156E10,9.956858E10,8.83247E10,0E0,3.4781266E10,1.6223778E11,4.779661E11,6.038815E8,2.6352157E10,6.662652E9,0E0,1.0536747E11,2.7011318E10,0E0,0E0,0E0,0E0,0E0,0E0,0E0,0E0,0E0,0E0,0E0,0E0,0E0,0E0,0E0,0E0,0E0,0E0,0E0,0E0,0E0,0E0,0E0,0E0,0E0,0E0,0E0,0E0,0E0,0E0,0E0,0E0,0E0,0E0,0E0,0E0,0E0,0E0,0E0,0E0,0E0,0E0,0E0,0E0,0E0,0E0,0E0,0E0],"parents":[2147483647,0,0,1,1,2,2,3,3,4,4,5,5,6,6,7,7,8,8,9,9,10,10,11,11,12,12,13,13,14,14,15,15,16,16,17,17,18,18,20,20,21,21,22,22,23,23,24,24,26,26,27,27,28,28,29,29,30,30,31,31,32,32,33,33,34,34,35,35,36,36,37,37,38,38,41,41,42,42,43,43,44,44,45,45,46,46,47,47,48,48,50,50,51,51,52,52,53,53,54,54,55,55,57,57,58,58],"right_children":[2,4,6,8,10,12,14,16,18,20,22,24,26,28,30,32,34,36,38,-1,40,42,44,46,48,-1,50,52,54,56,58,60,62,64,66,68,70,72,74,-1,-1,76,78,80,82,84,86,88,90,-1,92,94,96,98,100,102,-1,104,106,-1,-1,-1,-1,-1,-1,-1,-1,-1,-1,-1,-1,-1,-1,-1,-1,-1,-1,-1,-1,-1,-1,-1,-1,-1,-1,-1,-1,-1,-1,-1,-1,-1,-1,-1,-1,-1,-1,-1,-1,-1,-1,-1,-1,-1,-1,-1,-1],"split_conditions":[8.723635E-3,2.0485003E-2,2.3072653E-2,1.427847E-3,2.885638E-3,7.431522E-2,2.8687492E-2,8.6467306E-4,1.5274077E-3,4.3365266E-3,4.304558E-2,7.1554948E-3,7.432527E-2,4.797079E-2,1.4950082E-1,3.32973E-3,9.556099E-4,8.326377E-4,2.42908E-3,1.2726044E4,1.2089878E-2,3.7096545E-2,3.4525596E-2,5.0796727E-3,6.769329E-2,7.581815E4,7.432862E-2,4.9398147E-2,1.0570957E-1,1.4429142E-1,1.5671712E-1,1.8936018E-2,2.994053E-3,5.0218343E-3,3.1722866E-2,7.2143897E-3,1.9553981E-3,3.1783838E-2,1.8256739E-2,7.070438E4,4.460186E4,3.6545485E-2,3.3407286E-3,2.582357E-2,2.5147097E-3,4.2765208E-2,4.980703E-3,3.9253097E-2,3.5914056E-2,-6.7722E3,8.16499E-2,1.0140793E-1,5.1433302E-2,5.1769353E-2,4.8929766E-2,1.344039E-1,1.4890339E4,1.5356457E-1,9.08263E-2,2.647924E4,3.4785223E4,8.490714E3,1.9252473E4,1.340432E4,-1.3213893E3,1.3594236E4,7.8028594E3,5.7919715E4,1.6421107E4,2.0923514E4,-6.2775E2,2.2086672E4,3.4716332E4,3.1954791E4,4.269212E4,2.3529156E4,3.656673E4,2.4046594E4,1.6453936E4,1.8505203E4,1.0663113E4,1.212615E4,2.4271912E4,4.5563936E3,2.3613074E4,1.742344E4,1.1175897E4,1.947232E4,1.4465083E4,2.1441908E4,1.6045244E4,5.1272215E4,1.9620125E4,7.4502124E3,8.722783E3,6.6648047E3,1.2793967E4,2.4295908E3,1.5041649E3,6.0416284E3,1.1116392E4,1.1599897E4,1.0931026E4,4.349395E3,1.4082814E3,1.3064182E4,1.1471263E4],"split_indices":[1,13,8,8,7,1,8,3,8,1,13,3,1,5,1,12,8,3,8,0,5,7,7,5,13,0,1,3,7,1,7,13,1,5,7,5,3,7,13,0,0,7,12,7,8,13,8,13,1,0,5,7,1,1,5,1,0,1,8,0,0,0,0,0,0,0,0,0,0,0,0,0,0,0,0,0,0,0,0,0,0,0,0,0,0,0,0,0,0,0,0,0,0,0,0,0,0,0,0,0,0,0,0,0,0,0,0],"split_type":[0,0,0,0,0,0,0,0,0,0,0,0,0,0,0,0,0,0,0,0,0,0,0,0,0,0,0,0,0,0,0,0,0,0,0,0,0,0,0,0,0,0,0,0,0,0,0,0,0,0,0,0,0,0,0,0,0,0,0,0,0,0,0,0,0,0,0,0,0,0,0,0,0,0,0,0,0,0,0,0,0,0,0,0,0,0,0,0,0,0,0,0,0,0,0,0,0,0,0,0,0,0,0,0,0,0,0],"sum_hessian":[2.2321E4,1.1458E4,1.0863E4,1.877E3,9.581E3,1.221E3,9.642E3,4.21E2,1.456E3,3.2E1,9.549E3,1.147E3,7.4E1,5.777E3,3.865E3,2.93E2,1.28E2,6.5E1,1.391E3,2E0,3E1,7.309E3,2.24E3,5.54E2,5.93E2,7E0,6.7E1,5.137E3,6.4E2,2.245E3,1.62E3,1.54E2,1.39E2,1.7E1,1.11E2,5.9E1,6E0,6.33E2,7.58E2,2.2E1,8E0,4.05E3,3.259E3,1.199E3,1.041E3,4.79E2,7.5E1,3.01E2,2.92E2,2E0,6.5E1,4.382E3,7.55E2,1.44E2,4.96E2,2.211E3,3.4E1,5.76E2,1.044E3,9.3E1,6.1E1,1.3E1,1.26E2,2E0,1.5E1,4.3E1,6.8E1,5.5E1,4E0,4E0,2E0,3.69E2,2.64E2,4.5E2,3.08E2,3.771E3,2.79E2,1.344E3,1.915E3,5.04E2,6.95E2,1.98E2,8.43E2,4.72E2,7E0,4.6E1,2.9E1,6.1E1,2.4E2,2.38E2,5.4E1,6.3E1,2E0,2.683E3,1.699E3,1.67E2,5.88E2,1.3E2,1.4E1,4.85E2,1.1E1,5.72E2,1.639E3,3.99E2,1.77E2,1.98E2,8.46E2],"tree_param":{"num_deleted":"0","num_feature":"19","num_nodes":"107","size_leaf_vector":"0"}},{"base_weights":[1.4752366E5,9.296865E4,2.7000906E5,7.4221445E4,1.4566181E5,2.321538E5,3.992291E5,6.0045453E4,8.962794E4,1.535372E5,1.0706671E5,2.1518916E5,2.87419E5,3.5750975E5,4.7164322E5,2.6269363E4,6.4365957E4,5.5786055E4,9.299202E4,1.3406978E5,1.632632E5,1.0360241E5,1.18167805E5,3.5107894E5,2.1245017E5,2.9929003E5,2.4437194E5,4.1747466E5,3.3739088E5,5.400514E5,4.0918778E5,3.992881E4,-9.066187E3,6.8424336E4,3.7813406E4,8.003769E4,3.709851E4,1.68988E5,9.149016E4,1.580896E5,1.26784195E5,2.029196E5,1.5699603E5,1.0530886E5,8.747452E4,1.2613511E5,8.788504E4,3.9080797E5,2.647579E5,2.1839334E5,1.6759E5,2.8155228E5,3.4175547E5,2.5004767E5,1.368681E5,3.8860244E5,4.81451E5,2.4349794E5,3.5251416E5,3.981636E5,5.670189E5,3.1353528E5,4.6370575E5,1.121563E4,5.09091E4,1.6685275E4,-2.8119418E4,6.636691E4,8.612054E4,1.5756332E3,4.2486707E4,7.6224305E4,3.241085E5,2.8380707E4,8.0083695E4,1.21772234E5,1.2127035E6,7.530143E4,9.4536305E4,7.2899055E4,1.6855958E5,9.425805E4,1.3611683E5,1.8491077E5,4.0381716E5,1.2313789E5,1.6305258E5,4.854701E4,1.0556516E5,1.8463438E3,9.05547E4,9.508517E4,3.603685E4,1.6649878E5,4.060317E5,9.473E4,2.741935E5,1.928228E5,2.2915484E5,2.5828775E5,1.6084969E5,2.6027595E5,3.037082E5,2.4835439E5,3.750085E5,2.3808523E5,2.78538E5,5.0101625E4,1.4568461E5,1.4441583E4,3.928692E5,4.90182E5,1.17244086E5,9.214745E4,2.5645719E5,4.2699766E5,3.3258397E5,1.9963692E5,4.347051E5,4.6783012E5,5.992452E5,-1.1531667E4,3.195504E5,4.1333778E5,5.6768025E5],"categories":[],"categories_nodes":[],"categories_segments":[],"categories_sizes":[],"default_left":[1,1,1,1,1,1,1,1,1,1,1,1,1,1,1,1,1,1,1,1,1,1,1,1,1,1,1,1,1,1,1,1,1,1,1,1,1,1,1,1,1,1,1,1,1,0,1,1,1,1,1,1,1,1,1,1,1,1,1,1,1,1,1,0,0,0,0,0,0,0,0,0,0,0,0,0,0,0,0,0,0,0,0,0,0,0,0,0,0,0,0,0,0,0,0,0,0,0,0,0,0,0,0,0,0,0,0,0,0,0,0,0,0,0,0,0,0,0,0,0,0,0,0,0,0],"id":10,"left_children":[1,3,5,7,9,11,13,15,17,19,21,23,25,27,29,31,33,35,37,39,41,43,45,47,49,51,53,55,57,59,61,63,65,67,69,71,73,75,77,79,81,83,85,87,89,-1,91,93,95,97,99,101,103,105,107,109,111,113,115,117,119,121,123,-1,-1,-1,-1,-1,-1,-1,-1,-1,-1,-1,-1,-1,-1,-1,-1,-1,-1,-1,-1,-1,-1,-1,-1,-1,-1,-1,-1,-1,-1,-1,-1,-1,-1,-1,-1,-1,-1,-1,-1,-1,-1,-1,-1,-1,-1,-1,-1,-1,-1,-1,-1,-1,-1,-1,-1,-1,-1,-1,-1,-1,-1],"loss_changes":[1.4913482E14,1.524653E13,3.3552117E13,2.483091E12,1.2151654E12,4.9278374E12,4.5351835E12,8.646935E11,6.161894E11,6.148598E11,1.4293139E10,1.442505E12,5.6409194E11,1.0559244E12,2.1972197E12,3.2616022E11,5.645533E11,2.2181957E11,5.509973E11,1.7700592E11,5.243593E11,5.485101E9,2.6794131E10,1.6745654E11,1.029299E12,6.3668696E11,1.33571805E11,2.654533E11,9.7629975E11,7.958776E11,1.4190463E12,1.5297E11,9.320176E10,1.604531E11,1.1847795E11,1.7540304E11,1.03402865E11,4.5339095E12,2.329852E11,2.178338E11,2.5095884E11,1.017945E12,3.7713504E11,1.8287165E9,1.4866547E10,0E0,1.0012721E10,1.0996679E11,1.8946327E10,9.2638754E11,2.4700361E11,2.4715775E11,7.8272424E11,2.2295871E10,4.940628E9,2.7210967E11,1.7148202E11,1.8623706E11,8.11019E11,2.4692182E11,4.2927863E11,2.226798E11,7.551467E11,0E0,0E0,0E0,0E0,0E0,0E0,0E0,0E0,0E0,0E0,0E0,0E0,0E0,0E0,0E0,0E0,0E0,0E0,0E0,0E0,0E0,0E0,0E0,0E0,0E0,0E0,0E0,0E0,0E0,0E0,0E0,0E0,0E0,0E0,0E0,0E0,0E0,0E0,0E0,0E0,0E0,0E0,0E0,0E0,0E0,0E0,0E0,0E0,0E0,0E0,0E0,0E0,0E0,0E0,0E0,0E0,0E0,0E0,0E0,0E0,0E0,0E0],"parents":[2147483647,0,0,1,1,2,2,3,3,4,4,5,5,6,6,7,7,8,8,9,9,10,10,11,11,12,12,13,13,14,14,15,15,16,16,17,17,18,18,19,19,20,20,21,21,22,22,23,23,24,24,25,25,26,26,27,27,28,28,29,29,30,30,31,31,32,32,33,33,34,34,35,35,36,36,37,37,38,38,39,39,40,40,41,41,42,42,43,43,44,44,46,46,47,47,48,48,49,49,50,50,51,51,52,52,53,53,54,54,55,55,56,56,57,57,58,58,59,59,60,60,61,61,62,62],"right_children":[2,4,6,8,10,12,14,16,18,20,22,24,26,28,30,32,34,36,38,40,42,44,46,48,50,52,54,56,58,60,62,64,66,68,70,72,74,76,78,80,82,84,86,88,90,-1,92,94,96,98,100,102,104,106,108,110,112,114,116,118,120,122,124,-1,-1,-1,-1,-1,-1,-1,-1,-1,-1,-1,-1,-1,-1,-1,-1,-1,-1,-1,-1,-1,-1,-1,-1,-1,-1,-1,-1,-1,-1,-1,-1,-1,-1,-1,-1,-1,-1,-1,-1,-1,-1,-1,-1,-1,-1,-1,-1,-1,-1,-1,-1,-1,-1,-1,-1,-1,-1,-1,-1,-1,-1],"split_conditions":[7.35E1,5.95E1,1.015E2,4.95E1,3.6463898E-2,9.05E1,1.185E2,4.6053067E-2,5.440175E-3,6.45E1,6.55E1,1.4176512E-2,1.5898626E-2,1.9544095E-2,3.027901E-2,1.4606615E-2,1.2381557E-1,1.8924099E-3,4.7782073E-3,9.462211E-3,4.897721E-3,1.6001719E-1,1.868672E-1,1.3131888E-2,2.871535E-2,1.8121637E-3,1.8157214E-1,1.08616995E-2,6.1859516E-3,1.080815E-3,1.6466077E-2,3.85E1,2.401172E-2,1.648774E-2,4E1,2.3377672E-2,2.004226E-2,4.643282E-3,2.4961188E-2,5.0846655E-3,3.4212388E-2,2.8071057E-2,6.562034E-3,3.6629517E-2,1.8437308E-1,1.2613511E4,7.25E1,8.2967104E-4,1.3132558E-2,7.85E1,3.6791563E-2,1.0644756E-2,6.2149847E-3,9.65E1,1.573896E-1,8.248742E-3,1.165E2,2.2259388E-2,5.2799517E-3,1.811194E-2,1.245E2,8.276665E-3,1.415E2,1.121563E3,5.09091E3,1.6685276E3,-2.811942E3,6.636691E3,8.612054E3,1.5756332E2,4.248671E3,7.6224307E3,3.241085E4,2.8380708E3,8.0083696E3,1.2177224E4,1.2127035E5,7.530143E3,9.453631E3,7.289906E3,1.6855959E4,9.425805E3,1.3611683E4,1.8491076E4,4.0381715E4,1.2313789E4,1.6305258E4,4.854701E3,1.0556516E4,1.8463438E2,9.055471E3,9.508518E3,3.6036853E3,1.6649879E4,4.0603168E4,9.473E3,2.741935E4,1.928228E4,2.2915484E4,2.5828775E4,1.6084969E4,2.6027596E4,3.0370818E4,2.483544E4,3.750085E4,2.3808523E4,2.78538E4,5.0101626E3,1.4568461E4,1.4441583E3,3.9286918E4,4.90182E4,1.1724409E4,9.214745E3,2.5645719E4,4.2699766E4,3.32584E4,1.9963693E4,4.347051E4,4.678301E4,5.992452E4,-1.1531667E3,3.1955041E4,4.1333777E4,5.6768027E4],"split_indices":[0,0,0,0,6,0,0,13,6,0,0,13,10,13,13,10,10,9,10,2,10,6,2,2,6,9,2,2,6,9,6,0,2,6,0,2,2,10,2,6,13,6,10,6,2,0,0,9,2,0,13,6,6,0,6,10,0,13,10,13,0,2,0,0,0,0,0,0,0,0,0,0,0,0,0,0,0,0,0,0,0,0,0,0,0,0,0,0,0,0,0,0,0,0,0,0,0,0,0,0,0,0,0,0,0,0,0,0,0,0,0,0,0,0,0,0,0,0,0,0,0,0,0,0,0],"split_type":[0,0,0,0,0,0,0,0,0,0,0,0,0,0,0,0,0,0,0,0,0,0,0,0,0,0,0,0,0,0,0,0,0,0,0,0,0,0,0,0,0,0,0,0,0,0,0,0,0,0,0,0,0,0,0,0,0,0,0,0,0,0,0,0,0,0,0,0,0,0,0,0,0,0,0,0,0,0,0,0,0,0,0,0,0,0,0,0,0,0,0,0,0,0,0,0,0,0,0,0,0,0,0,0,0,0,0,0,0,0,0,0,0,0,0,0,0,0,0,0,0,0,0,0,0],"sum_hessian":[2.2321E4,1.5444E4,6.877E3,1.1393E4,4.051E3,5.321E3,1.556E3,5.936E3,5.457E3,3.362E3,6.89E2,4.075E3,1.246E3,9.91E2,5.65E2,6.74E2,5.262E3,4.95E2,4.962E3,1.125E3,2.237E3,5.33E2,1.56E2,7.8E1,3.997E3,9.72E2,2.74E2,2.44E2,7.47E2,2.66E2,2.99E2,4.86E2,1.88E2,4.563E3,6.99E2,2.14E2,2.81E2,9.4E1,4.868E3,2.57E2,8.68E2,3.01E2,1.936E3,4.77E2,5.6E1,1.21E2,3.5E1,5.1E1,2.7E1,3.526E3,4.71E2,6.91E2,2.81E2,2.59E2,1.5E1,1.73E2,7.1E1,1.06E2,6.41E2,4.5E1,2.21E2,1.11E2,1.88E2,1.35E2,3.51E2,8E1,1.08E2,4.092E3,4.71E2,8E1,6.19E2,2.12E2,2E0,2.35E2,4.6E1,9.1E1,3E0,7.75E2,4.093E3,2.9E1,2.28E2,1.96E2,6.72E2,2.78E2,2.3E1,2.97E2,1.639E3,3E0,4.74E2,2E0,5.4E1,3E1,5E0,4E0,4.7E1,2E0,2.5E1,1.05E3,2.476E3,3E1,4.41E2,3.59E2,3.32E2,7.6E1,2.05E2,1.89E2,7E1,2E0,1.3E1,2E0,1.71E2,6.9E1,2E0,9E0,9.7E1,1.31E2,5.1E2,8E0,3.7E1,5.8E1,1.63E2,2E0,1.09E2,1.3E2,5.8E1],"tree_param":{"num_deleted":"0","num_feature":"19","num_nodes":"125","size_leaf_vector":"0"}},{"base_weights":[1.3282911E5,1.851104E5,7.767225E4,2.2803719E5,1.6359748E5,1.19386055E5,7.238292E4,2.384444E5,1.2375894E5,1.18645375E5,1.7095152E5,9.8957E4,4.3022262E5,6.628751E4,8.212297E4,2.2989286E5,3.25629E5,9.507404E4,1.4440716E5,1.3730594E5,7.8312555E4,6.520517E5,1.7033819E5,1.4899139E5,5.0297676E4,6.421686E5,3.9896103E5,7.0115E4,4.1371117E4,9.103421E4,6.933551E4,2.252262E5,4.1187678E5,8.3983956E5,3.1263197E5,8.9376164E4,1.4363384E5,1.9064397E5,1.348543E5,5.715129E5,1.353415E5,9.637834E4,2.8712293E4,1.4275533E5,1.7827848E5,1.3019929E5,1.6381255E5,3.6913668E4,1.0444377E5,-9.141448E4,4.1520594E5,6.333501E4,1.0114141E5,2.1811852E4,4.8424715E4,9.031683E4,1.0998379E5,3.4473523E4,9.4518414E4,1.8075248E5,2.406772E5,1.7184875E5,4.1918656E5,2.8911222E5,6.1358175E5,1.0058109E5,5.7832367E4,5.6015977E4,1.6243727E5,1.2936043E5,2.0982017E5,1.21573016E5,1.677338E5,1.0397311E5,7.48389E4,8.546426E3,7.76901E4,1.9227692E5,1.345781E5,1.9704553E5,1.648694E5,9.366773E4,1.3740748E5,1.2846206E5,1.7038856E5,-2.1194361E4,3.9820984E4,3.134676E5,8.799345E4,4.4277794E5,3.0968803E5,9.226446E4,6.2188438E4,8.983173E4,1.06196836E5,1.3998405E4,5.5059707E4,4.7405875E4,9.286912E4,9.081196E4,5.4213566E4,1.4945014E5,9.847594E4,1.5511805E4,4.882115E4,1.0156294E5,9.023614E4],"categories":[],"categories_nodes":[],"categories_segments":[],"categories_sizes":[],"default_left":[1,1,1,1,1,1,1,1,1,1,1,1,1,1,1,1,1,1,1,1,1,0,1,1,1,0,1,1,1,1,1,1,1,0,1,1,1,0,1,0,1,1,1,1,1,1,1,1,1,0,1,1,1,1,1,1,1,1,1,0,0,0,0,0,0,0,0,0,0,0,0,0,0,0,0,0,0,0,0,0,0,0,0,0,0,0,0,0,0,0,0,0,0,0,0,0,0,0,0,0,0,0,0,0,0,0,0],"id":11,"left_children":[1,3,5,7,9,11,13,15,17,19,21,23,25,27,29,31,33,35,37,39,41,-1,43,45,47,-1,49,51,53,55,57,59,61,-1,63,65,67,-1,69,-1,71,73,75,77,79,81,83,85,87,-1,89,91,93,95,97,99,101,103,105,-1,-1,-1,-1,-1,-1,-1,-1,-1,-1,-1,-1,-1,-1,-1,-1,-1,-1,-1,-1,-1,-1,-1,-1,-1,-1,-1,-1,-1,-1,-1,-1,-1,-1,-1,-1,-1,-1,-1,-1,-1,-1,-1,-1,-1,-1,-1,-1],"loss_changes":[6.4354985E13,1.0544849E13,2.3883667E12,4.119377E12,2.5043518E12,7.7108976E12,5.671202E11,2.5159616E12,1.9298045E11,7.998328E11,1.8249081E12,2.7850378E12,2.4073313E11,5.632929E11,4.1622176E11,2.5976835E12,1.7958668E12,2.8389147E10,6.307106E10,5.4958175E11,3.045838E11,0E0,1.4099908E12,1.3603596E11,4.1863977E11,0E0,5.7965176E11,1.0758893E12,1.0834857E11,1.9730006E10,1.3373344E12,2.0805258E12,6.4819823E10,0E0,1.9602436E12,4.2251715E10,1.3966148E10,0E0,4.2872865E10,0E0,3.0652183E11,3.3279443E10,9.119026E10,5.6940193E11,1.2471344E12,5.4014247E10,5.0640978E10,8.0076145E10,3.678453E11,0E0,5.4892954E10,1.34404375E11,4.3118494E10,5.4302687E10,2.1951283E10,3.276066E10,1.9345703E10,1.7390246E11,1.7563124E10,0E0,0E0,0E0,0E0,0E0,0E0,0E0,0E0,0E0,0E0,0E0,0E0,0E0,0E0,0E0,0E0,0E0,0E0,0E0,0E0,0E0,0E0,0E0,0E0,0E0,0E0,0E0,0E0,0E0,0E0,0E0,0E0,0E0,0E0,0E0,0E0,0E0,0E0,0E0,0E0,0E0,0E0,0E0,0E0,0E0,0E0,0E0,0E0],"parents":[2147483647,0,0,1,1,2,2,3,3,4,4,5,5,6,6,7,7,8,8,9,9,10,10,11,11,12,12,13,13,14,14,15,15,16,16,17,17,18,18,19,19,20,20,22,22,23,23,24,24,26,26,27,27,28,28,29,29,30,30,31,31,32,32,34,34,35,35,36,36,38,38,40,40,41,41,42,42,43,43,44,44,45,45,46,46,47,47,48,48,50,50,51,51,52,52,53,53,54,54,55,55,56,56,57,57,58,58],"right_children":[2,4,6,8,10,12,14,16,18,20,22,24,26,28,30,32,34,36,38,40,42,-1,44,46,48,-1,50,52,54,56,58,60,62,-1,64,66,68,-1,70,-1,72,74,76,78,80,82,84,86,88,-1,90,92,94,96,98,100,102,104,106,-1,-1,-1,-1,-1,-1,-1,-1,-1,-1,-1,-1,-1,-1,-1,-1,-1,-1,-1,-1,-1,-1,-1,-1,-1,-1,-1,-1,-1,-1,-1,-1,-1,-1,-1,-1,-1,-1,-1,-1,-1,-1,-1,-1,-1,-1,-1,-1],"split_conditions":[8.723635E-3,2.148351E-2,1.0389596E-1,5.894889E-2,1.3774367E-2,7.431522E-2,5.4988813E-2,3.725283E-2,5.1145494E-2,3.3427387E-2,1.0853617E-2,2.8729863E-2,7.432527E-2,1.15585364E-1,1.23782784E-1,5.849658E-2,3.7480906E-2,6.0912315E-3,1.284254E-2,2.9447107E-4,4.7792606E-3,6.5205168E4,6.5780687E-3,8.537581E-2,7.127688E-2,6.4216863E4,7.432862E-2,7.906539E-2,3.140843E-2,1.2000134E-1,1.584526E-1,7.425692E-3,5.6626843E-3,8.398396E4,2.747919E-2,5.1707905E-3,7.5391196E-3,1.9064396E4,1.316387E-2,5.715129E4,3.3169173E-2,3.4866706E-2,5.126845E-3,1.1862643E-2,2.4688425E-2,6.834112E-2,1.2611173E-2,6.732869E-2,8.779502E-3,-9.141448E3,9.983954E-2,2.3256602E-2,7.939432E-2,5.2038603E-2,7.275736E-2,1.17709965E-1,1.20842814E-1,1.567615E-1,1.2619725E-1,1.8075248E4,2.406772E4,1.7184875E4,4.1918656E4,2.8911223E4,6.1358176E4,1.0058109E4,5.783237E3,5.6015977E3,1.6243727E4,1.2936043E4,2.0982018E4,1.2157302E4,1.677338E4,1.0397312E4,7.48389E3,8.546426E2,7.7690103E3,1.9227693E4,1.345781E4,1.9704553E4,1.6486941E4,9.366772E3,1.3740749E4,1.2846206E4,1.7038857E4,-2.1194363E3,3.9820984E3,3.134676E4,8.799346E3,4.4277793E4,3.0968803E4,9.226446E3,6.2188438E3,8.983173E3,1.0619684E4,1.3998406E3,5.5059707E3,4.7405874E3,9.286912E3,9.081196E3,5.421357E3,1.4945015E4,9.847594E3,1.5511805E3,4.8821147E3,1.0156294E4,9.023614E3],"split_indices":[1,4,16,16,17,1,1,2,17,16,16,4,1,16,10,16,2,1,4,3,1,0,10,16,16,0,1,17,10,10,16,4,1,0,17,3,2,0,4,0,16,2,1,2,17,16,4,16,10,0,2,10,17,1,2,10,10,16,10,0,0,0,0,0,0,0,0,0,0,0,0,0,0,0,0,0,0,0,0,0,0,0,0,0,0,0,0,0,0,0,0,0,0,0,0,0,0,0,0,0,0,0,0,0,0,0,0],"split_type":[0,0,0,0,0,0,0,0,0,0,0,0,0,0,0,0,0,0,0,0,0,0,0,0,0,0,0,0,0,0,0,0,0,0,0,0,0,0,0,0,0,0,0,0,0,0,0,0,0,0,0,0,0,0,0,0,0,0,0,0,0,0,0,0,0,0,0,0,0,0,0,0,0,0,0,0,0,0,0,0,0,0,0,0,0,0,0,0,0,0,0,0,0,0,0,0,0,0,0,0,0,0,0,0,0,0,0],"sum_hessian":[2.2321E4,1.1458E4,1.0863E4,3.822E3,7.636E3,1.22E3,9.643E3,3.474E3,3.48E2,1.076E3,6.56E3,1.146E3,7.4E1,5.936E3,3.707E3,3.167E3,3.07E2,1.48E2,2E2,7.34E2,3.42E2,7E0,6.553E3,5.64E2,5.82E2,7E0,6.7E1,5.144E3,7.92E2,2.181E3,1.526E3,3.09E3,7.7E1,6E0,3.01E2,1.35E2,1.3E1,3.1E1,1.69E2,2E0,7.32E2,2.5E2,9.2E1,1.469E3,5.084E3,2.53E2,3.11E2,4.68E2,1.14E2,2E0,6.5E1,4.224E3,9.2E2,2.11E2,5.81E2,2.107E3,7.4E1,6.41E2,8.85E2,8E2,2.29E3,3E0,7.4E1,2.81E2,2E1,9.8E1,3.7E1,3E0,1E1,1.6E2,9E0,5.17E2,2.15E2,1.82E2,6.8E1,6.6E1,2.6E1,2.05E2,1.264E3,2.113E3,2.971E3,4.4E1,2.09E2,5.2E1,2.59E2,2.2E1,4.46E2,7E0,1.07E2,4.9E1,1.6E1,1.58E2,4.066E3,2.9E2,6.3E2,1.72E2,3.9E1,5.7E2,1.1E1,2.077E3,3E1,1.4E1,6E1,2.77E2,3.64E2,3.26E2,5.59E2],"tree_param":{"num_deleted":"0","num_feature":"19","num_nodes":"107","size_leaf_vector":"0"}},{"base_weights":[1.19589164E5,7.556712E4,2.3003725E5,5.8252504E4,1.1872909E5,1.9981416E5,3.5697403E5,4.6915707E4,7.057356E4,9.753784E4,1.3028168E5,1.7979936E5,2.4471481E5,4.004477E5,2.9983628E5,9.54422E3,5.1445062E4,5.322827E4,7.679424E4,1.15867664E5,8.378908E4,1.4732519E5,1.2166774E5,1.9038694E5,1.5583256E5,2.5562414E5,1.877397E5,3.510941E5,4.8141162E5,3.1533662E5,1.4746375E5,1.8086822E4,-3.156165E4,5.4913453E4,2.893314E4,8.734E4,3.5561742E4,1.2291406E5,7.486064E4,1.039578E5,1.3985978E5,6.222881E4,8.959713E4,1.4229105E5,2.6000823E5,1.1235706E5,1.4419458E5,1.5230755E5,2.0064361E5,2.3793275E5,1.4568353E5,3.583246E5,2.4961031E5,1.9315069E5,1.0950927E5,3.2328206E5,3.8277103E5,3.9833772E5,5.0499328E5,3.7733806E5,2.8591197E5,-2.3581354E4,1.5492644E5,-1.1036879E4,2.7508951E4,-5.185671E4,3.349915E4,-7.644062E3,5.521661E4,1.8288273E4,5.0055875E4,7.622929E4,2.2191152E5,3.137693E4,9.043287E4,3.7291762E5,1.1576166E5,3.8206195E4,7.6613734E4,1.13762695E5,7.862705E4,1.1192014E5,1.6882325E5,8.43038E4,3.975626E4,7.6019525E5,8.390808E4,1.309826E5,1.7524248E5,4.1266966E5,1.0940658E5,7.385785E4,1.1741791E5,4.4079812E5,1.4185608E5,3.764341E5,1.4590661E5,1.8859908E5,2.4194864E5,2.4071562E5,5.0089918E4,9.7712375E4,1.5638166E5,1.5603572E5,3.815353E5,4.327775E5,2.4599112E5,1.9382166E4,1.945295E5,1.2395098E5,5.756041E4,1.2627204E5,3.3793162E5,4.2433584E5,3.2534038E5,2.479115E5,4.2948178E5,5.662687E5,4.339896E5,3.0081397E5,4.2671225E5,2.7929806E5,5.976153E5,1.6020566E5,7.6428164E4],"categories":[],"categories_nodes":[],"categories_segments":[],"categories_sizes":[],"default_left":[1,1,1,1,1,1,1,1,1,1,1,1,1,1,1,1,1,1,1,1,1,1,1,1,1,1,1,1,1,1,1,1,1,1,1,1,1,1,1,1,1,1,1,1,1,1,1,1,1,1,1,1,1,1,1,1,1,1,1,1,1,0,1,0,0,0,0,0,0,0,0,0,0,0,0,0,0,0,0,0,0,0,0,0,0,0,0,0,0,0,0,0,0,0,0,0,0,0,0,0,0,0,0,0,0,0,0,0,0,0,0,0,0,0,0,0,0,0,0,0,0,0,0,0,0],"id":12,"left_children":[1,3,5,7,9,11,13,15,17,19,21,23,25,27,29,31,33,35,37,39,41,43,45,47,49,51,53,55,57,59,61,63,65,67,69,71,73,75,77,79,81,83,85,87,89,91,93,95,97,99,101,103,105,107,109,111,113,115,117,119,121,-1,123,-1,-1,-1,-1,-1,-1,-1,-1,-1,-1,-1,-1,-1,-1,-1,-1,-1,-1,-1,-1,-1,-1,-1,-1,-1,-1,-1,-1,-1,-1,-1,-1,-1,-1,-1,-1,-1,-1,-1,-1,-1,-1,-1,-1,-1,-1,-1,-1,-1,-1,-1,-1,-1,-1,-1,-1,-1,-1,-1,-1,-1,-1],"loss_changes":[1.0851557E14,1.1921999E13,2.4332164E13,1.5882193E12,1.1058492E12,4.575214E12,2.91536E12,1.0044582E12,5.848286E11,3.9754347E11,4.157562E11,8.7343025E11,9.35313E11,2.5921218E12,1.2099896E12,2.2636102E11,4.11845E11,8.671E11,3.4884656E11,1.8262314E11,1.105068E11,5.228892E11,3.9656725E11,9.317982E11,8.785683E11,7.289113E11,8.806046E10,2.577274E11,3.0623033E11,7.714625E11,6.875277E10,1.4656268E11,1.4830299E11,8.741349E10,1.5850222E11,7.1871496E11,2.1599538E11,2.4293094E11,2.4485298E11,1.0654528E11,1.63991E11,9.5864685E10,2.7135836E12,3.2992605E11,8.9748485E11,2.6351763E11,3.3421368E11,7.0111986E11,9.18519E11,5.014867E10,4.8662944E11,2.7383038E11,7.2549715E11,5.373218E10,7.1197E9,6.4133634E11,3.3220356E11,1.8398944E11,6.1569447E11,4.459426E11,5.1546738E11,0E0,8.0618455E9,0E0,0E0,0E0,0E0,0E0,0E0,0E0,0E0,0E0,0E0,0E0,0E0,0E0,0E0,0E0,0E0,0E0,0E0,0E0,0E0,0E0,0E0,0E0,0E0,0E0,0E0,0E0,0E0,0E0,0E0,0E0,0E0,0E0,0E0,0E0,0E0,0E0,0E0,0E0,0E0,0E0,0E0,0E0,0E0,0E0,0E0,0E0,0E0,0E0,0E0,0E0,0E0,0E0,0E0,0E0,0E0,0E0,0E0,0E0,0E0,0E0,0E0],"parents":[2147483647,0,0,1,1,2,2,3,3,4,4,5,5,6,6,7,7,8,8,9,9,10,10,11,11,12,12,13,13,14,14,15,15,16,16,17,17,18,18,19,19,20,20,21,21,22,22,23,23,24,24,25,25,26,26,27,27,28,28,29,29,30,30,31,31,32,32,33,33,34,34,35,35,36,36,37,37,38,38,39,39,40,40,41,41,42,42,43,43,44,44,45,45,46,46,47,47,48,48,49,49,50,50,51,51,52,52,53,53,54,54,55,55,56,56,57,57,58,58,59,59,60,60,62,62],"right_children":[2,4,6,8,10,12,14,16,18,20,22,24,26,28,30,32,34,36,38,40,42,44,46,48,50,52,54,56,58,60,62,64,66,68,70,72,74,76,78,80,82,84,86,88,90,92,94,96,98,100,102,104,106,108,110,112,114,116,118,120,122,-1,124,-1,-1,-1,-1,-1,-1,-1,-1,-1,-1,-1,-1,-1,-1,-1,-1,-1,-1,-1,-1,-1,-1,-1,-1,-1,-1,-1,-1,-1,-1,-1,-1,-1,-1,-1,-1,-1,-1,-1,-1,-1,-1,-1,-1,-1,-1,-1,-1,-1,-1,-1,-1,-1,-1,-1,-1,-1,-1,-1,-1,-1,-1],"split_conditions":[7.55E1,5.95E1,1.055E2,4.95E1,6.45E1,9.05E1,2.121986E-2,3.235811E-2,3.2766677E-2,2.5660621E-3,4.429471E-2,4.612624E-2,5.0189607E-2,1.235E2,1.0125099E-2,3.322959E-2,1.537267E-1,1.6910026E-2,3.3043116E-2,7.317449E-3,3.4981596E-3,1.3147903E-2,7.25E1,1.2931044E-3,1.1678948E-3,6.2767956E-3,1.8149155E-1,9.960784E-3,2.8607305E-3,1.638763E-3,8.556001E-3,3.85E1,3.4637414E-2,9.883065E-4,1.5671465E-1,6.2460806E-2,5.152555E-3,1.7820537E-2,5.2702427E-3,5.226621E-2,1.9310748E-3,3.7630096E-2,3.5302672E-3,2.8551485E-2,1.5993811E-2,2.7785236E-3,3.794E-3,4.0381784E-3,5.0513837E-2,1.9614065E-2,1.6418835E-2,1.0434046E-2,4.293006E-3,1.12611465E-2,6.4955115E-2,1.3069178E-3,1.1809401E-2,1.7931847E-3,2.5610852E-3,3.0434169E-2,4.46754E-2,-2.3581355E3,1.6342556E-1,-1.1036879E3,2.7508953E3,-5.1856714E3,3.3499148E3,-7.644062E2,5.521661E3,1.8288274E3,5.0055874E3,7.622929E3,2.2191152E4,3.137693E3,9.043287E3,3.729176E4,1.1576166E4,3.8206196E3,7.6613735E3,1.137627E4,7.8627046E3,1.1192015E4,1.6882326E4,8.43038E3,3.9756262E3,7.601952E4,8.390808E3,1.3098261E4,1.7524248E4,4.1266965E4,1.0940658E4,7.385785E3,1.1741791E4,4.4079812E4,1.4185608E4,3.764341E4,1.4590661E4,1.8859908E4,2.4194865E4,2.4071562E4,5.0089917E3,9.771237E3,1.5638166E4,1.5603572E4,3.815353E4,4.327775E4,2.4599113E4,1.9382167E3,1.9452951E4,1.2395098E4,5.756041E3,1.2627204E4,3.3793164E4,4.2433586E4,3.2534037E4,2.479115E4,4.294818E4,5.662687E4,4.339896E4,3.0081396E4,4.2671227E4,2.7929807E4,5.976153E4,1.6020565E4,7.6428164E3],"split_indices":[0,0,0,0,0,0,4,2,2,8,16,7,7,0,5,4,16,2,16,5,8,5,0,8,8,4,2,2,5,8,2,0,7,8,7,16,8,4,4,16,8,7,8,7,16,5,4,7,16,2,2,2,7,4,4,8,5,8,8,4,2,0,7,0,0,0,0,0,0,0,0,0,0,0,0,0,0,0,0,0,0,0,0,0,0,0,0,0,0,0,0,0,0,0,0,0,0,0,0,0,0,0,0,0,0,0,0,0,0,0,0,0,0,0,0,0,0,0,0,0,0,0,0,0,0],"split_type":[0,0,0,0,0,0,0,0,0,0,0,0,0,0,0,0,0,0,0,0,0,0,0,0,0,0,0,0,0,0,0,0,0,0,0,0,0,0,0,0,0,0,0,0,0,0,0,0,0,0,0,0,0,0,0,0,0,0,0,0,0,0,0,0,0,0,0,0,0,0,0,0,0,0,0,0,0,0,0,0,0,0,0,0,0,0,0,0,0,0,0,0,0,0,0,0,0,0,0,0,0,0,0,0,0,0,0,0,0,0,0,0,0,0,0,0,0,0,0,0,0,0,0,0,0],"sum_hessian":[2.2321E4,1.5961E4,6.36E3,1.1393E4,4.568E3,5.139E3,1.221E3,5.936E3,5.457E3,1.615E3,2.953E3,3.558E3,1.581E3,6.9E2,5.31E2,6.42E2,5.294E3,1.443E3,4.014E3,6.89E2,9.26E2,9.86E2,1.967E3,2.463E3,1.095E3,1.324E3,2.57E2,4.32E2,2.58E2,4.81E2,5E1,5.32E2,1.1E2,4.586E3,7.08E2,4.91E2,9.52E2,1.59E2,3.855E3,4.64E2,2.25E2,1.99E2,7.27E2,9.46E2,4E1,1.396E3,5.71E2,5.26E2,1.937E3,1.18E2,9.77E2,7E1,1.254E3,2.39E2,1.8E1,2.36E2,1.96E2,6.1E1,1.97E2,1.51E2,3.3E2,2E0,4.8E1,1.3E2,4.02E2,8.4E1,2.6E1,2.2E1,4.564E3,4.72E2,2.36E2,4.55E2,3.6E1,8.86E2,6.6E1,3E0,1.56E2,1.77E2,3.678E3,3.32E2,1.32E2,1.17E2,1.08E2,9.9E1,1E2,5E0,7.22E2,7.08E2,2.38E2,1.9E1,2.1E1,1.64E2,1.232E3,3E0,5.68E2,1.3E1,5.13E2,1.504E3,4.33E2,1.16E2,2E0,1.8E2,7.97E2,8E0,6.2E1,2.2E1,1.232E3,2E0,2.37E2,1.3E1,5E0,1.7E1,2.19E2,1.1E2,8.6E1,1.2E1,4.9E1,1.02E2,9.5E1,6.2E1,8.9E1,3.25E2,5E0,4.4E1,4E0],"tree_param":{"num_deleted":"0","num_feature":"19","num_nodes":"125","size_leaf_vector":"0"}},{"base_weights":[1.07684E5,1.5153428E5,6.449086E4,1.8543144E5,1.336489E5,1.00229984E5,5.855297E4,2.0363022E5,1.3385267E5,5.631566E5,1.3315633E5,8.757335E4,3.4959544E5,5.2973285E4,6.688281E4,1.9349655E5,2.5596688E5,1.0146527E5,2.042867E5,1.12271734E5,1.43295E5,1.19239164E5,4.2520297E4,3.7317297E5,2.4442936E5,5.6468457E4,3.0912885E4,7.442133E4,5.6295824E4,1.3380142E5,2.0795862E5,2.295958E5,3.8445422E5,2.1353705E5,8.696845E4,1.3703927E5,2.807287E5,1.5558517E5,9.9882586E4,9.218624E5,1.4262638E5,9.727E4,1.2774528E5,2.6881219E4,7.202515E4,2.0643055E5,3.9444672E5,9.664613E4,3.1625238E5,5.072404E4,8.372742E4,2.1202957E4,3.6842E4,7.398568E4,9.179721E4,2.8371871E4,7.3719695E4,1.1539163E5,2.9898212E5,2.4066183E5,1.7764777E5,2.0093616E5,3.4346588E5,1.6726147E5,4.2256438E5,4.1060538E5,1.6009847E5,2.5424869E5,8.027727E4,2.271699E4,1.7709897E5,2.0857397E5,3.519908E5,2.430809E5,1.2624799E5,1.1016971E5,7.442993E4,1.3180727E5,1.6422333E5,4.929159E4,1.0937687E5,2.5800966E5,1.2226898E5,1.7532361E4,4.074257E4,3.248694E5,6.4564625E4,1.7006342E5,4.0450844E5,2.0385814E5,-3.4727406E4,3.5463156E5,9.5697336E4,5.291959E4,4.0856844E4,7.257766E4,8.807728E4,3.8528902E4,5.477085E3,5.4053215E4,3.2897098E4,7.823967E4,7.239039E4,9.390123E4,4.359976E4,9.651506E3,4.302994E4,8.920364E4,7.162767E4],"categories":[],"categories_nodes":[],"categories_segments":[],"categories_sizes":[],"default_left":[1,1,1,1,1,1,1,1,1,0,1,1,1,1,1,1,1,1,1,1,1,1,1,1,1,1,1,1,1,1,1,1,1,1,1,1,1,1,1,0,1,1,1,1,1,0,1,1,1,1,1,1,1,1,1,1,1,0,0,0,0,0,0,0,0,0,0,0,0,0,0,0,0,0,0,0,0,0,0,0,0,0,0,0,0,0,0,0,0,0,0,0,0,0,0,0,0,0,0,0,0,0,0,0,0,0,0,0,0],"id":13,"left_children":[1,3,5,7,9,11,13,15,17,-1,19,21,23,25,27,29,31,33,35,37,39,41,43,45,47,49,51,53,55,57,59,61,63,65,67,69,71,73,75,-1,77,79,81,83,85,-1,87,89,91,93,95,97,99,101,103,105,107,-1,-1,-1,-1,-1,-1,-1,-1,-1,-1,-1,-1,-1,-1,-1,-1,-1,-1,-1,-1,-1,-1,-1,-1,-1,-1,-1,-1,-1,-1,-1,-1,-1,-1,-1,-1,-1,-1,-1,-1,-1,-1,-1,-1,-1,-1,-1,-1,-1,-1,-1,-1],"loss_changes":[4.2268803E13,6.6902E12,2.3809134E12,3.5612745E12,1.4597101E12,5.0223456E12,4.448269E11,1.4482177E12,2.2604467E12,0E0,1.5184135E12,2.1705597E12,9.971119E10,4.4407508E11,3.0435652E11,2.0182404E12,1.4534291E12,1.09758697E12,1.5756543E12,1.2578508E12,2.4063058E12,1.5482434E11,2.892253E11,1.349554E11,1.4987742E11,7.771217E11,4.4872892E10,1.0277093E10,7.822162E11,1.3795386E12,1.8465843E12,1.1711063E12,5.5839293E11,7.556849E11,6.623645E11,7.699492E11,6.7730145E11,1.3194892E12,4.7567182E11,0E0,1.1167418E12,1.4214916E11,4.264349E11,5.2935033E10,3.9024905E11,0E0,5.0865373E10,1.0567322E11,5.9174683E10,8.717966E10,3.565735E10,8.234607E10,3.1559057E10,9.299821E9,1.0777068E9,1.699898E11,2.5744114E10,0E0,0E0,0E0,0E0,0E0,0E0,0E0,0E0,0E0,0E0,0E0,0E0,0E0,0E0,0E0,0E0,0E0,0E0,0E0,0E0,0E0,0E0,0E0,0E0,0E0,0E0,0E0,0E0,0E0,0E0,0E0,0E0,0E0,0E0,0E0,0E0,0E0,0E0,0E0,0E0,0E0,0E0,0E0,0E0,0E0,0E0,0E0,0E0,0E0,0E0,0E0,0E0],"parents":[2147483647,0,0,1,1,2,2,3,3,4,4,5,5,6,6,7,7,8,8,10,10,11,11,12,12,13,13,14,14,15,15,16,16,17,17,18,18,19,19,20,20,21,21,22,22,23,23,24,24,25,25,26,26,27,27,28,28,29,29,30,30,31,31,32,32,33,33,34,34,35,35,36,36,37,37,38,38,40,40,41,41,42,42,43,43,44,44,46,46,47,47,48,48,49,49,50,50,51,51,52,52,53,53,54,54,55,55,56,56],"right_children":[2,4,6,8,10,12,14,16,18,-1,20,22,24,26,28,30,32,34,36,38,40,42,44,46,48,50,52,54,56,58,60,62,64,66,68,70,72,74,76,-1,78,80,82,84,86,-1,88,90,92,94,96,98,100,102,104,106,108,-1,-1,-1,-1,-1,-1,-1,-1,-1,-1,-1,-1,-1,-1,-1,-1,-1,-1,-1,-1,-1,-1,-1,-1,-1,-1,-1,-1,-1,-1,-1,-1,-1,-1,-1,-1,-1,-1,-1,-1,-1,-1,-1,-1,-1,-1,-1,-1,-1,-1,-1,-1],"split_conditions":[6.6964485E-2,2.148351E-2,1.0006744E-1,2.5437942E-3,1.0853617E-2,9.866278E-2,8.245826E-2,4.5217043E-3,9.958595E-3,5.6315664E4,3.59369E-2,2.8729863E-2,9.983954E-2,2.911909E-2,1.7921202E-1,7.2345254E-3,2.1714075E-3,2.699214E-3,3.704006E-3,2.4851202E-3,3.5991047E-2,3.7877537E-2,4.1235327E-3,1.3185465E-2,9.985219E-2,1.12242E-1,9.755113E-3,1.6598776E-1,1.5820503E-1,1.085192E-2,1.9706685E-2,5.814334E-2,2.8682915E-2,1.833506E-2,2.6788216E-3,4.593284E-3,5.0425738E-2,1.712516E-2,3.3720697E-3,9.218624E4,2.0536631E-2,1.1969716E-3,1.7826628E-2,2.5930873E-3,3.9022535E-2,2.0643055E4,9.93045E-2,9.984797E-2,9.987116E-2,5.1784895E-2,2.6450433E-2,7.947959E-2,7.1924776E-2,4.6861142E-2,6.2163386E-2,1.567615E-1,2.0462988E-1,1.1539163E4,2.9898213E4,2.4066184E4,1.7764777E4,2.0093615E4,3.434659E4,1.6726146E4,4.2256438E4,4.106054E4,1.6009847E4,2.542487E4,8.0277275E3,2.271699E3,1.7709896E4,2.0857396E4,3.5199082E4,2.4308092E4,1.26248E4,1.1016972E4,7.442993E3,1.3180727E4,1.6422334E4,4.929159E3,1.0937687E4,2.5800967E4,1.2226897E4,1.7532362E3,4.074257E3,3.2486941E4,6.4564624E3,1.7006342E4,4.0450844E4,2.0385814E4,-3.4727407E3,3.5463156E4,9.569733E3,5.291959E3,4.0856843E3,7.2577656E3,8.807729E3,3.8528904E3,5.477085E2,5.405322E3,3.2897097E3,7.8239673E3,7.239039E3,9.390123E3,4.359976E3,9.651506E2,4.302994E3,8.920364E3,7.162767E3],"split_indices":[16,4,16,11,16,2,13,12,2,0,16,4,2,11,2,4,11,12,11,12,16,13,12,4,2,16,4,2,16,2,13,16,2,13,2,4,16,16,11,0,2,12,2,12,13,0,2,2,2,12,11,13,2,4,4,16,13,0,0,0,0,0,0,0,0,0,0,0,0,0,0,0,0,0,0,0,0,0,0,0,0,0,0,0,0,0,0,0,0,0,0,0,0,0,0,0,0,0,0,0,0,0,0,0,0,0,0,0,0],"split_type":[0,0,0,0,0,0,0,0,0,0,0,0,0,0,0,0,0,0,0,0,0,0,0,0,0,0,0,0,0,0,0,0,0,0,0,0,0,0,0,0,0,0,0,0,0,0,0,0,0,0,0,0,0,0,0,0,0,0,0,0,0,0,0,0,0,0,0,0,0,0,0,0,0,0,0,0,0,0,0,0,0,0,0,0,0,0,0,0,0,0,0,0,0,0,0,0,0,0,0,0,0,0,0,0,0,0,0,0,0],"sum_hessian":[2.2321E4,1.1075E4,1.1246E4,3.822E3,7.253E3,1.6E3,9.646E3,2.823E3,9.99E2,7E0,7.246E3,1.524E3,7.6E1,5.781E3,3.865E3,2.369E3,4.54E2,6.86E2,3.13E2,2.372E3,4.874E3,8.94E2,6.3E2,6E1,1.6E1,4.989E3,7.92E2,2.254E3,1.611E3,4.64E2,1.905E3,3.79E2,7.5E1,7.7E1,6.09E2,1.68E2,1.45E2,5.25E2,1.847E3,3E0,4.871E3,2.53E2,6.41E2,4.13E2,2.17E2,8E0,5.2E1,6E0,1E1,4.123E3,8.66E2,3.02E2,4.9E2,2.204E3,5E1,6.2E2,9.91E2,4.19E2,4.5E1,9.13E2,9.92E2,3.05E2,7.4E1,1.2E1,6.3E1,1.5E1,6.2E1,2.2E1,5.87E2,4.4E1,1.24E2,7.4E1,7.1E1,1.3E2,3.95E2,1.313E3,5.34E2,3.25E3,1.621E3,5.2E1,2.01E2,2.4E1,6.17E2,2.48E2,1.65E2,5E0,2.12E2,3E0,4.9E1,3E0,3E0,8E0,2E0,3.369E3,7.54E2,2.48E2,6.18E2,1.43E2,1.59E2,8.9E1,4.01E2,5.88E2,1.616E3,4.7E1,3E0,2.73E2,3.47E2,1.13E2,8.78E2],"tree_param":{"num_deleted":"0","num_feature":"19","num_nodes":"109","size_leaf_vector":"0"}},{"base_weights":[9.695701E4,1.3619836E5,5.750603E4,2.2569658E5,1.3301423E5,5.571223E4,3.015727E5,1.0167162E5,2.4067423E5,1.6276397E5,1.23238484E5,7.626929E4,5.270091E4,1.2075625E4,3.1645466E5,2.5458173E5,1.066328E4,2.9708794E5,1.9092402E5,2.1124317E5,1.3961295E5,4.0606497E5,1.22072016E5,5.6447742E4,1.1761427E5,5.0519133E4,6.888356E4,3.8693582E4,-1.8567541E4,4.4612912E5,2.9273116E5,1.0593679E5,3.12517E5,1.6570069E5,-4.8906363E4,2.4828173E5,4.1052297E5,5.183263E5,1.7697605E5,1.8841114E5,2.8112528E5,1.22171305E5,2.1923061E5,2.7022516E5,4.808496E5,1.2903617E5,9.404084E4,9.435377E4,4.1829008E4,1.2949794E5,9.438119E4,5.3021125E4,1.5210887E4,8.722163E4,6.7195336E4,1.201365E5,5.126102E5,-1.3323805E5,3.0765806E5,2.4080611E4,-7.970653E4,6.836434E4,2.8623853E5,3.121563E5,6.8916756E5,2.1256873E5,1.5020617E5,2.0732264E5,8.6768586E4,3.26793E5,1.2845261E5,1.4559467E5,7.985005E4,1.613072E5,2.7140116E5,2.2339583E2,3.152068E5,5.776519E5,3.681771E5,1.10957414E5,1.4013569E5,9.134953E4,2.4351027E5,5.518945E4,1.0232806E5,2.1901707E4,6.2817965E4,1.5056186E5,1.15323195E5,6.439251E4,1.0062366E5,4.9231965E4,6.666257E4,2.3510988E4,-2.772633E3,6.941995E4,1.2058564E5,6.911625E4,5.7950496E4,5.2304338E5,2.8909934E5],"categories":[],"categories_nodes":[],"categories_segments":[],"categories_sizes":[],"default_left":[1,1,1,1,1,1,1,1,1,1,1,1,1,1,1,1,1,1,1,1,1,1,1,1,1,1,1,0,0,1,1,0,0,0,1,1,0,1,1,1,1,1,1,1,1,1,1,1,1,1,1,1,1,1,1,0,0,0,1,0,0,0,0,0,0,0,0,0,0,0,0,0,0,0,0,0,0,0,0,0,0,0,0,0,0,0,0,0,0,0,0,0,0,0,0,0,0,0,0,0,0],"id":14,"left_children":[1,3,5,7,9,11,13,15,17,19,21,23,25,27,29,31,33,35,37,39,41,43,45,47,49,51,53,-1,-1,55,57,-1,-1,-1,59,61,-1,63,65,67,69,71,73,75,77,79,81,83,85,87,89,91,93,95,97,-1,-1,-1,99,-1,-1,-1,-1,-1,-1,-1,-1,-1,-1,-1,-1,-1,-1,-1,-1,-1,-1,-1,-1,-1,-1,-1,-1,-1,-1,-1,-1,-1,-1,-1,-1,-1,-1,-1,-1,-1,-1,-1,-1,-1,-1],"loss_changes":[3.4549052E13,3.1588478E12,4.85731E12,6.8699134E11,3.1231794E12,6.8020706E11,3.4515085E11,5.956774E11,9.003283E11,2.967168E12,2.6355413E12,1.1488859E12,3.3701862E11,4.7967375E9,1.0628209E11,1.04681505E11,2.6669847E11,7.7281624E11,7.485223E11,1.3208073E12,2.486698E12,2.0529965E11,1.5704565E12,5.2525557E11,1.1367665E11,7.502687E11,2.9525803E10,0E0,0E0,1.5514023E11,4.7336286E11,0E0,0E0,0E0,4.912761E10,7.521184E11,0E0,3.1428182E10,1.3767174E11,1.2352938E12,1.4221868E12,1.4624469E12,9.3531406E11,1.6996139E11,5.461508E9,1.2869635E12,6.2822495E11,7.711385E10,2.876371E11,7.191134E10,2.3098687E10,4.0708237E11,8.4250665E10,4.6864925E10,1.4658568E10,0E0,0E0,0E0,1.1260867E11,0E0,0E0,0E0,0E0,0E0,0E0,0E0,0E0,0E0,0E0,0E0,0E0,0E0,0E0,0E0,0E0,0E0,0E0,0E0,0E0,0E0,0E0,0E0,0E0,0E0,0E0,0E0,0E0,0E0,0E0,0E0,0E0,0E0,0E0,0E0,0E0,0E0,0E0,0E0,0E0,0E0,0E0],"parents":[2147483647,0,0,1,1,2,2,3,3,4,4,5,5,6,6,7,7,8,8,9,9,10,10,11,11,12,12,13,13,14,14,15,15,16,16,17,17,18,18,19,19,20,20,21,21,22,22,23,23,24,24,25,25,26,26,29,29,30,30,34,34,35,35,37,37,38,38,39,39,40,40,41,41,42,42,43,43,44,44,45,45,46,46,47,47,48,48,49,49,50,50,51,51,52,52,53,53,54,54,58,58],"right_children":[2,4,6,8,10,12,14,16,18,20,22,24,26,28,30,32,34,36,38,40,42,44,46,48,50,52,54,-1,-1,56,58,-1,-1,-1,60,62,-1,64,66,68,70,72,74,76,78,80,82,84,86,88,90,92,94,96,98,-1,-1,-1,100,-1,-1,-1,-1,-1,-1,-1,-1,-1,-1,-1,-1,-1,-1,-1,-1,-1,-1,-1,-1,-1,-1,-1,-1,-1,-1,-1,-1,-1,-1,-1,-1,-1,-1,-1,-1,-1,-1,-1,-1,-1,-1],"split_conditions":[5.255175E-2,9.5306884E-4,5.5E0,9.628092E-4,1.8718289E0,9.358178E-2,9.222041E-2,4.04717E-4,2.8866301E-3,2.0512969E-3,2.885638E-3,1.5028478E-2,1.5671712E-1,5.8001067E-2,9.299791E-2,5.301949E-3,3.9553846E-4,7.0228237E-3,4.4798385E-3,1.7952825E-3,1.3596766E-2,2.6030121E-3,2.5E0,7.927842E-3,3.5898797E-2,1.2377177E-1,1.5726796E-1,3.8693582E3,-1.8567542E3,8.215847E-2,9.299888E-2,1.0593679E4,3.1251701E4,1.6570068E4,5.1922654E-4,1.2952756E-3,4.1052297E4,2.1848248E-3,1.8870621E-3,1.5789855E-3,1.1881569E-2,2.7810517E-3,8.792242E-3,2.4709288E-2,2.6489582E-3,1.2794295E-2,6.8337256E-3,1.5069688E-3,3.3819317E-3,7.984939E-2,7.604575E-2,1.6495645E-2,1.5142977E-1,1.5159693E-1,1.6314933E-1,1.201365E4,5.126102E4,-1.3323805E4,9.300004E-2,2.4080613E3,-7.9706533E3,6.8364346E3,2.8623854E4,3.121563E4,6.891676E4,2.1256873E4,1.5020617E4,2.0732264E4,8.676858E3,3.26793E4,1.2845261E4,1.4559468E4,7.985005E3,1.6130721E4,2.7140115E4,2.2339582E1,3.1520682E4,5.7765188E4,3.681771E4,1.1095741E4,1.4013569E4,9.134953E3,2.4351027E4,5.518945E3,1.0232807E4,2.1901707E3,6.2817964E3,1.5056187E4,1.1532319E4,6.4392515E3,1.0062366E4,4.923197E3,6.6662573E3,2.3510989E3,-2.772633E2,6.9419956E3,1.2058564E4,6.911625E3,5.79505E3,5.230434E4,2.8909936E4],"split_indices":[7,10,18,11,14,7,7,10,12,12,7,10,7,10,7,6,12,6,7,12,10,10,18,10,10,10,7,0,0,6,7,0,0,0,10,11,0,11,11,12,10,11,6,6,7,6,12,12,12,7,7,6,11,11,7,0,0,0,7,0,0,0,0,0,0,0,0,0,0,0,0,0,0,0,0,0,0,0,0,0,0,0,0,0,0,0,0,0,0,0,0,0,0,0,0,0,0,0,0,0,0],"split_type":[0,0,0,0,0,0,0,0,0,0,0,0,0,0,0,0,0,0,0,0,0,0,0,0,0,0,0,0,0,0,0,0,0,0,0,0,0,0,0,0,0,0,0,0,0,0,0,0,0,0,0,0,0,0,0,0,0,0,0,0,0,0,0,0,0,0,0,0,0,0,0,0,0,0,0,0,0,0,0,0,0,0,0,0,0,0,0,0,0,0,0,0,0,0,0,0,0,0,0,0,0],"sum_hessian":[2.2321E4,1.1189E4,1.1132E4,3.82E2,1.0807E4,1.1052E4,8E1,4.2E1,3.4E2,2.669E3,8.138E3,1.409E3,9.643E3,4E0,7.6E1,1.5E1,2.7E1,1.57E2,1.83E2,8.6E2,1.809E3,3.2E1,8.106E3,9.54E2,4.55E2,8.501E3,1.142E3,2E0,2E0,9E0,6.7E1,5E0,1E1,7E0,2E1,1.12E2,4.5E1,6E0,1.77E2,6.51E2,2.09E2,1.486E3,3.23E2,1.3E1,1.9E1,6.49E3,1.616E3,2.64E2,6.9E2,2.98E2,1.57E2,7.938E3,5.63E2,9.2E1,1.05E3,2E0,7E0,2E0,6.5E1,6E0,1.4E1,2E1,9.2E1,4E0,2E0,7.3E1,1.04E2,5.48E2,1.03E2,1.6E2,4.9E1,9.55E2,5.31E2,1.55E2,1.68E2,2E0,1.1E1,8E0,1.1E1,2.473E3,4.017E3,1.589E3,2.7E1,4.6E1,2.18E2,3.55E2,3.35E2,1.16E2,1.82E2,2.9E1,1.28E2,6.216E3,1.722E3,3.85E2,1.78E2,6.2E1,3E1,8.64E2,1.86E2,3E0,6.2E1],"tree_param":{"num_deleted":"0","num_feature":"19","num_nodes":"101","size_leaf_vector":"0"}},{"base_weights":[8.7298805E4,1.1763083E5,4.744125E4,1.7086145E5,1.1220779E5,3.8989723E4,5.104079E4,1.4324369E5,2.2057433E5,1.1103374E5,2.896679E5,4.0291316E4,3.221324E4,6.927356E4,4.9611805E4,2.541114E5,1.2690044E5,2.6939444E5,1.5570073E5,1.9873028E5,1.0883826E5,4.677568E5,2.6445644E5,3.957499E4,1.3356353E5,2.73518E4,3.3605332E4,7.298901E4,6.5337832E4,4.801995E4,6.1239195E4,3.4953894E5,2.2101755E5,5.0478555E4,1.6049595E5,4.7637844E4,2.831645E5,5.0528406E4,2.0241372E5,1.9074056E5,4.807983E5,8.7155516E4,1.1519492E5,-1.243555E5,2.781228E5,3.5035242E4,4.053973E4,5.872692E5,4.0145996E4,3.2432312E4,3.6777062E4,7.358678E4,6.3811456E2,4.993868E4,1.005477E4,1.9804535E4,6.2228324E4,4.760974E5,2.3417298E5,2.3403664E5,8.435547E4,-2.5192941E4,7.407484E4,1.95204E4,1.7393973E5,-3.7678227E4,8.2087164E4,2.6076286E5,4.656499E5,3.0870725E5,3.0468334E4,5.4091586E4,2.71576E5,1.6802561E5,2.83611E5,2.871838E5,6.4322306E5,1.07909555E5,5.656658E4,8.348028E4,1.2326952E5,4.838151E5,2.6064833E5,3.7355656E4,2.7152758E4,8.366733E4,3.971768E4,3.309056E4,-3.7620668E4,4.540674E4,5.5271332E4,5.8712393E3,6.4351836E4,-2.518379E3,2.414748E4,7.5144484E4,5.757903E4],"categories":[],"categories_nodes":[],"categories_segments":[],"categories_sizes":[],"default_left":[1,1,1,1,1,1,1,1,1,1,1,1,1,1,1,1,1,1,1,1,1,0,1,1,1,0,1,1,0,1,1,1,1,1,1,1,1,1,1,1,1,1,1,0,1,1,1,0,0,1,0,0,0,1,1,1,1,0,0,0,0,0,0,0,0,0,0,0,0,0,0,0,0,0,0,0,0,0,0,0,0,0,0,0,0,0,0,0,0,0,0,0,0,0,0,0,0],"id":15,"left_children":[1,3,5,7,9,11,13,15,17,19,21,23,25,27,29,31,33,35,37,39,41,-1,43,45,47,-1,49,51,-1,53,55,57,59,61,63,65,67,69,71,73,75,77,79,-1,81,83,85,-1,-1,87,-1,-1,-1,89,91,93,95,-1,-1,-1,-1,-1,-1,-1,-1,-1,-1,-1,-1,-1,-1,-1,-1,-1,-1,-1,-1,-1,-1,-1,-1,-1,-1,-1,-1,-1,-1,-1,-1,-1,-1,-1,-1,-1,-1,-1,-1],"loss_changes":[2.6980834E13,3.639733E12,2.915167E11,1.574764E12,2.3650841E12,2.4157618E10,1.7276967E11,1.3357663E12,1.2755822E12,2.1794442E12,2.1304023E11,1.562027E11,2.2615818E9,2.3815782E9,1.1320322E11,2.259199E11,1.6864038E12,7.0716175E11,8.790097E11,5.3480522E11,1.5274649E12,0E0,3.9591346E11,9.091154E9,7.3933665E11,0E0,1.5033958E8,1.0462822E10,0E0,4.01894E11,2.958767E10,2.2432317E11,1.119195E11,3.643362E11,8.6462536E11,4.7179104E10,7.8610484E11,2.858021E11,1.2675968E12,5.2614293E11,3.541133E10,1.6019557E12,2.1979076E12,0E0,1.1112232E11,6.81404E9,6.6625733E10,0E0,0E0,1.3787398E10,0E0,0E0,0E0,1.2456139E11,6.027214E10,1.9028086E9,3.975073E10,0E0,0E0,0E0,0E0,0E0,0E0,0E0,0E0,0E0,0E0,0E0,0E0,0E0,0E0,0E0,0E0,0E0,0E0,0E0,0E0,0E0,0E0,0E0,0E0,0E0,0E0,0E0,0E0,0E0,0E0,0E0,0E0,0E0,0E0,0E0,0E0,0E0,0E0,0E0,0E0],"parents":[2147483647,0,0,1,1,2,2,3,3,4,4,5,5,6,6,7,7,8,8,9,9,10,10,11,11,12,12,13,13,14,14,15,15,16,16,17,17,18,18,19,19,20,20,22,22,23,23,24,24,26,26,27,27,29,29,30,30,31,31,32,32,33,33,34,34,35,35,36,36,37,37,38,38,39,39,40,40,41,41,42,42,44,44,45,45,46,46,49,49,53,53,54,54,55,55,56,56],